<?xml version="1.0" encoding="utf-8"?>
<Data xmlns:xsd="http://www.w3.org/2001/XMLSchema" xmlns:xsi="http://www.w3.org/2001/XMLSchema-instance">
  <nets>
    <NeuralNetwork>
      <layers>
        <int>8</int>
        <int>20</int>
        <int>20</int>
        <int>2</int>
      </layers>
      <neurons>
        <ArrayOfFloat>
          <float>0.8118036</float>
          <float>0.5572583</float>
          <float>0.122851953</float>
          <float>0.533251941</float>
          <float>0.485072345</float>
          <float>0.8438934</float>
          <float>-0.176586375</float>
          <float>1</float>
        </ArrayOfFloat>
        <ArrayOfFloat>
          <float>0.772771657</float>
          <float>0.739835262</float>
          <float>0.299620926</float>
          <float>0.0169115923</float>
          <float>0.9066208</float>
          <float>0.8975918</float>
          <float>0.0279434863</float>
          <float>-0.0013284079</float>
          <float>-0.0248963628</float>
          <float>0.989611447</float>
          <float>-0.9771484</float>
          <float>-0.09015713</float>
          <float>-0.3416573</float>
          <float>-0.1838317</float>
          <float>0.910540044</float>
          <float>0.7884403</float>
          <float>0.9605427</float>
          <float>0.179634854</float>
          <float>0.383145183</float>
          <float>-0.820682</float>
        </ArrayOfFloat>
        <ArrayOfFloat>
          <float>-0.274418056</float>
          <float>-0.9939887</float>
          <float>0.555263</float>
          <float>0.9000717</float>
          <float>0.347920418</float>
          <float>0.0149664143</float>
          <float>0.311299652</float>
          <float>0.658261359</float>
          <float>0.6891279</float>
          <float>0.959503233</float>
          <float>-0.9984407</float>
          <float>0.984379768</float>
          <float>0.9140718</float>
          <float>0.3192429</float>
          <float>0.578203857</float>
          <float>-0.960399449</float>
          <float>0.996618867</float>
          <float>-0.09830571</float>
          <float>-0.724776149</float>
          <float>-0.9604178</float>
        </ArrayOfFloat>
        <ArrayOfFloat>
          <float>0.416724116</float>
          <float>0.9999338</float>
        </ArrayOfFloat>
      </neurons>
      <axons>
        <ArrayOfArrayOfFloat>
          <ArrayOfFloat>
            <float>-0.231393456</float>
            <float>1.48978138</float>
            <float>0.5649502</float>
            <float>-0.137962833</float>
            <float>-0.375244975</float>
            <float>-0.145715833</float>
            <float>-0.908828259</float>
            <float>0.5334915</float>
          </ArrayOfFloat>
          <ArrayOfFloat>
            <float>1.40626192</float>
            <float>-0.9083128</float>
            <float>-0.6882682</float>
            <float>0.217717767</float>
            <float>0.434859484</float>
            <float>-0.214372039</float>
            <float>0.196874022</float>
            <float>0.2878624</float>
          </ArrayOfFloat>
          <ArrayOfFloat>
            <float>0.0260659456</float>
            <float>1.34569824</float>
            <float>0.39857313</float>
            <float>-0.1784935</float>
            <float>-0.9755223</float>
            <float>0.243298411</float>
            <float>0.607808769</float>
            <float>-0.04053066</float>
          </ArrayOfFloat>
          <ArrayOfFloat>
            <float>-0.5252245</float>
            <float>0.89169</float>
            <float>-0.7023299</float>
            <float>0.321223885</float>
            <float>0.209689975</float>
            <float>-0.909975052</float>
            <float>-0.5504903</float>
            <float>0.43037805</float>
          </ArrayOfFloat>
          <ArrayOfFloat>
            <float>0.07664622</float>
            <float>1.24397027</float>
            <float>0.3355025</float>
            <float>-0.4349941</float>
            <float>-0.0606566668</float>
            <float>-0.8291931</float>
            <float>0.7583244</float>
            <float>1.8066026</float>
          </ArrayOfFloat>
          <ArrayOfFloat>
            <float>1.197161</float>
            <float>0.9995508</float>
            <float>1.3154366</float>
            <float>-0.0992912054</float>
            <float>0.5932269</float>
            <float>-0.348356843</float>
            <float>-0.0502381474</float>
            <float>-0.180490345</float>
          </ArrayOfFloat>
          <ArrayOfFloat>
            <float>0.241532683</float>
            <float>0.8270538</float>
            <float>0.9022198</float>
            <float>-0.0590225458</float>
            <float>-0.148269773</float>
            <float>-0.173542857</float>
            <float>-0.424915433</float>
            <float>-0.5650356</float>
          </ArrayOfFloat>
          <ArrayOfFloat>
            <float>-0.5538528</float>
            <float>0.5086005</float>
            <float>0.155508637</float>
            <float>0.273019433</float>
            <float>0.212517619</float>
            <float>0.3769333</float>
            <float>-0.518832564</float>
            <float>-0.51262</float>
          </ArrayOfFloat>
          <ArrayOfFloat>
            <float>0.792266548</float>
            <float>-0.07272168</float>
            <float>0.838907957</float>
            <float>-0.18202734</float>
            <float>1.97959721</float>
            <float>-0.9769907</float>
            <float>-0.7349508</float>
            <float>-0.899090767</float>
          </ArrayOfFloat>
          <ArrayOfFloat>
            <float>0.257220715</float>
            <float>0.050200358</float>
            <float>-0.225690633</float>
            <float>0.9213605</float>
            <float>0.437096566</float>
            <float>1.60454106</float>
            <float>0.425523251</float>
            <float>0.4361729</float>
          </ArrayOfFloat>
          <ArrayOfFloat>
            <float>-0.58886385</float>
            <float>0.5142176</float>
            <float>-0.492455125</float>
            <float>0.287532121</float>
            <float>-0.787672758</float>
            <float>-0.942826033</float>
            <float>0.405194</float>
            <float>-0.882258654</float>
          </ArrayOfFloat>
          <ArrayOfFloat>
            <float>0.135375619</float>
            <float>-0.01185286</float>
            <float>-0.5025399</float>
            <float>-0.7846699</float>
            <float>-0.4382784</float>
            <float>0.141336724</float>
            <float>0.0003251901</float>
            <float>0.379849881</float>
          </ArrayOfFloat>
          <ArrayOfFloat>
            <float>-0.5281836</float>
            <float>0.0049186945</float>
            <float>1.85626435</float>
            <float>-0.585080862</float>
            <float>-0.846700668</float>
            <float>0.8571254</float>
            <float>0.3732805</float>
            <float>-0.0926727057</float>
          </ArrayOfFloat>
          <ArrayOfFloat>
            <float>-1.0230583</float>
            <float>0.00367295742</float>
            <float>0.3994319</float>
            <float>0.633802235</float>
            <float>-0.130479217</float>
            <float>1.09610689</float>
            <float>0.3122305</float>
            <float>-0.551087141</float>
          </ArrayOfFloat>
          <ArrayOfFloat>
            <float>0.388192624</float>
            <float>-0.523308039</float>
            <float>0.487745017</float>
            <float>1.62713408</float>
            <float>0.700284</float>
            <float>0.009092734</float>
            <float>1.59469247</float>
            <float>0.513803</float>
          </ArrayOfFloat>
          <ArrayOfFloat>
            <float>-0.147115335</float>
            <float>-0.32210958</float>
            <float>1.36940932</float>
            <float>0.358414561</float>
            <float>0.3448448</float>
            <float>0.8379247</float>
            <float>-0.753855</float>
            <float>-0.0006513631</float>
          </ArrayOfFloat>
          <ArrayOfFloat>
            <float>0.7657044</float>
            <float>-0.6534817</float>
            <float>0.432014436</float>
            <float>0.646590948</float>
            <float>1.89499545</float>
            <float>0.022855401</float>
            <float>0.2877433</float>
            <float>0.409879178</float>
          </ArrayOfFloat>
          <ArrayOfFloat>
            <float>-0.03448708</float>
            <float>-0.8812089</float>
            <float>0.444656581</float>
            <float>0.227352023</float>
            <float>0.9575641</float>
            <float>-0.02265508</float>
            <float>1.6883235</float>
            <float>0.3775657</float>
          </ArrayOfFloat>
          <ArrayOfFloat>
            <float>-0.161880851</float>
            <float>-0.295183539</float>
            <float>-0.341843963</float>
            <float>-0.749787331</float>
            <float>1.03383112</float>
            <float>0.5866486</float>
            <float>-1.01080811</float>
            <float>-0.0335751772</float>
          </ArrayOfFloat>
          <ArrayOfFloat>
            <float>-0.705778837</float>
            <float>0.802210569</float>
            <float>0.211582676</float>
            <float>-0.152943835</float>
            <float>0.636799753</float>
            <float>-0.648765564</float>
            <float>-0.947584</float>
            <float>-0.9061587</float>
          </ArrayOfFloat>
        </ArrayOfArrayOfFloat>
        <ArrayOfArrayOfFloat>
          <ArrayOfFloat>
            <float>0.319856524</float>
            <float>1.15782428</float>
            <float>0.5637255</float>
            <float>-0.258316517</float>
            <float>0.04652226</float>
            <float>1.94560266</float>
            <float>0.2947714</float>
            <float>0.816776037</float>
            <float>0.820545435</float>
            <float>-0.460054874</float>
            <float>0.797284365</float>
            <float>0.145259485</float>
            <float>0.492799282</float>
            <float>0.139249921</float>
            <float>0.126494437</float>
            <float>0.119589344</float>
            <float>-0.954511642</float>
            <float>0.7236059</float>
            <float>-0.3272215</float>
            <float>1.43908358</float>
          </ArrayOfFloat>
          <ArrayOfFloat>
            <float>-0.142672688</float>
            <float>-0.0015369748</float>
            <float>0.224981114</float>
            <float>0.138425</float>
            <float>-0.681560755</float>
            <float>0.0106593119</float>
            <float>-0.610513449</float>
            <float>-0.108087182</float>
            <float>0.569819033</float>
            <float>0.40441367</float>
            <float>1.68105018</float>
            <float>1.68181515</float>
            <float>0.8144014</float>
            <float>-0.7230735</float>
            <float>0.415822953</float>
            <float>0.45534724</float>
            <float>0.00662004948</float>
            <float>0.956069946</float>
            <float>-0.8880415</float>
            <float>1.53183508</float>
          </ArrayOfFloat>
          <ArrayOfFloat>
            <float>0.136625648</float>
            <float>-0.857872</float>
            <float>0.872251749</float>
            <float>1.43803668</float>
            <float>0.6280947</float>
            <float>-0.9845617</float>
            <float>-0.5293188</float>
            <float>0.4389393</float>
            <float>0.95175904</float>
            <float>-0.432018876</float>
            <float>-0.05897081</float>
            <float>0.162365317</float>
            <float>-0.720237732</float>
            <float>0.143903524</float>
            <float>0.139769673</float>
            <float>0.764030457</float>
            <float>1.35627508</float>
            <float>0.9005647</float>
            <float>-0.3911637</float>
            <float>0.8001094</float>
          </ArrayOfFloat>
          <ArrayOfFloat>
            <float>1.99319625</float>
            <float>-0.805301666</float>
            <float>0.57620573</float>
            <float>1.64671075</float>
            <float>0.5206895</float>
            <float>-0.732403338</float>
            <float>1.31822753</float>
            <float>-0.202753663</float>
            <float>0.124393307</float>
            <float>0.04420072</float>
            <float>-0.0571952276</float>
            <float>1.1297828</float>
            <float>-0.13649857</float>
            <float>-0.568222046</float>
            <float>-0.835532069</float>
            <float>-1.087014</float>
            <float>0.7484045</float>
            <float>0.9972887</float>
            <float>0.721616</float>
            <float>-0.942379</float>
          </ArrayOfFloat>
          <ArrayOfFloat>
            <float>1.45470285</float>
            <float>-0.102635264</float>
            <float>0.81847477</float>
            <float>1.32879162</float>
            <float>0.279441327</float>
            <float>-0.74008894</float>
            <float>0.64446044</float>
            <float>0.209501877</float>
            <float>0.7014584</float>
            <float>-0.675557733</float>
            <float>-0.491248</float>
            <float>0.5112529</float>
            <float>-0.9585104</float>
            <float>-0.490337729</float>
            <float>-0.324977666</float>
            <float>0.0324782133</float>
            <float>-0.493970752</float>
            <float>-0.295034766</float>
            <float>-0.0356909037</float>
            <float>-0.105127171</float>
          </ArrayOfFloat>
          <ArrayOfFloat>
            <float>0.8560692</float>
            <float>-0.15427205</float>
            <float>0.374328345</float>
            <float>0.9329424</float>
            <float>0.448720664</float>
            <float>-0.3979727</float>
            <float>0.538041353</float>
            <float>-0.639179468</float>
            <float>-0.230103284</float>
            <float>-0.491402745</float>
            <float>-0.02698052</float>
            <float>0.283127755</float>
            <float>-0.817873</float>
            <float>1.03691888</float>
            <float>-0.2565515</float>
            <float>0.6454127</float>
            <float>-0.3435923</float>
            <float>0.149053216</float>
            <float>-0.389375567</float>
            <float>0.192239165</float>
          </ArrayOfFloat>
          <ArrayOfFloat>
            <float>0.732102633</float>
            <float>-0.290458083</float>
            <float>-0.019465331</float>
            <float>1.944462</float>
            <float>-0.3181187</float>
            <float>-0.1138705</float>
            <float>0.6433211</float>
            <float>-0.02341187</float>
            <float>0.106337652</float>
            <float>0.749562</float>
            <float>1.09280431</float>
            <float>0.5058918</float>
            <float>0.216203466</float>
            <float>0.637620449</float>
            <float>1.06366754</float>
            <float>0.604676</float>
            <float>-0.15084517</float>
            <float>0.808403</float>
            <float>-0.327355981</float>
            <float>0.5337952</float>
          </ArrayOfFloat>
          <ArrayOfFloat>
            <float>-0.632339954</float>
            <float>0.1649855</float>
            <float>0.190919042</float>
            <float>0.0179321878</float>
            <float>0.6982639</float>
            <float>-0.471681237</float>
            <float>-0.55002284</float>
            <float>0.518093348</float>
            <float>0.691021442</float>
            <float>0.237349719</float>
            <float>0.7211268</float>
            <float>0.0181059912</float>
            <float>0.6051624</float>
            <float>1.96873832</float>
            <float>1.38583469</float>
            <float>-0.151273131</float>
            <float>0.100823626</float>
            <float>0.8549679</float>
            <float>-0.6430228</float>
            <float>-0.9940877</float>
          </ArrayOfFloat>
          <ArrayOfFloat>
            <float>-0.4384128</float>
            <float>1.00916338</float>
            <float>-0.709836245</float>
            <float>0.131336153</float>
            <float>0.114806704</float>
            <float>-0.6359627</float>
            <float>1.63555336</float>
            <float>0.439391345</float>
            <float>0.5715374</float>
            <float>0.850614548</float>
            <float>-0.144392848</float>
            <float>1.88993788</float>
            <float>0.191044927</float>
            <float>0.967291653</float>
            <float>0.2700834</float>
            <float>0.599224567</float>
            <float>0.05994141</float>
            <float>0.1831404</float>
            <float>0.19751513</float>
            <float>0.4497778</float>
          </ArrayOfFloat>
          <ArrayOfFloat>
            <float>-0.9328892</float>
            <float>-0.132920384</float>
            <float>1.93459308</float>
            <float>0.853112936</float>
            <float>1.2490195</float>
            <float>0.412827</float>
            <float>1.45959878</float>
            <float>-0.1519577</float>
            <float>0.313338727</float>
            <float>-0.03005792</float>
            <float>1.07844448</float>
            <float>-0.7534191</float>
            <float>0.0965701342</float>
            <float>-0.285239637</float>
            <float>1.42921424</float>
            <float>-0.297347426</float>
            <float>0.02422501</float>
            <float>-1</float>
            <float>0.5494406</float>
            <float>-0.6138513</float>
          </ArrayOfFloat>
          <ArrayOfFloat>
            <float>-0.901512146</float>
            <float>-0.927701235</float>
            <float>-0.7201047</float>
            <float>1.70116568</float>
            <float>0.8291421</float>
            <float>-0.1339904</float>
            <float>1.78513789</float>
            <float>0.013237834</float>
            <float>0.929317</float>
            <float>-0.171912327</float>
            <float>1.38818336</float>
            <float>0.570345163</float>
            <float>0.265805542</float>
            <float>0.0178176165</float>
            <float>-0.92560935</float>
            <float>0.2711268</float>
            <float>-0.328467816</float>
            <float>1.71829188</float>
            <float>-0.08644974</float>
            <float>0.3960304</float>
          </ArrayOfFloat>
          <ArrayOfFloat>
            <float>1.56830692</float>
            <float>0.444637269</float>
            <float>-0.667696238</float>
            <float>0.9933471</float>
            <float>0.603780746</float>
            <float>0.335719347</float>
            <float>1.77456868</float>
            <float>0.2189318</float>
            <float>0.00468567759</float>
            <float>0.7499912</float>
            <float>1.01411486</float>
            <float>-0.374298453</float>
            <float>-0.637057066</float>
            <float>-0.6243541</float>
            <float>-0.326769471</float>
            <float>0.524876356</float>
            <float>-0.307648063</float>
            <float>-0.7706044</float>
            <float>0.08740771</float>
            <float>-0.406244338</float>
          </ArrayOfFloat>
          <ArrayOfFloat>
            <float>0.581780434</float>
            <float>0.870266438</float>
            <float>0.29139775</float>
            <float>-0.193223268</float>
            <float>0.0262116343</float>
            <float>0.07034983</float>
            <float>-0.007985199</float>
            <float>-0.973664165</float>
            <float>1.06523371</float>
            <float>0.3381767</float>
            <float>-0.1442487</float>
            <float>-0.310737222</float>
            <float>0.6635604</float>
            <float>0.442902327</float>
            <float>0.855237246</float>
            <float>0.0613816977</float>
            <float>-0.9689808</float>
            <float>1.4905417</float>
            <float>-0.095645085</float>
            <float>0.0124093294</float>
          </ArrayOfFloat>
          <ArrayOfFloat>
            <float>0.3927016</float>
            <float>-0.241337657</float>
            <float>-0.83567524</float>
            <float>1.62291408</float>
            <float>-0.841895759</float>
            <float>-0.888344049</float>
            <float>-0.4017495</float>
            <float>0.0596225858</float>
            <float>0.208668351</float>
            <float>-0.31234017</float>
            <float>-0.18203935</float>
            <float>0.855828166</float>
            <float>0.151702285</float>
            <float>-0.801185369</float>
            <float>1.55856228</float>
            <float>0.7822876</float>
            <float>0.650586843</float>
            <float>0.337104559</float>
            <float>-0.7971669</float>
            <float>0.361972064</float>
          </ArrayOfFloat>
          <ArrayOfFloat>
            <float>-0.125850588</float>
            <float>-0.9107338</float>
            <float>0.995178</float>
            <float>0.772274256</float>
            <float>1.03915715</float>
            <float>0.3280413</float>
            <float>-0.0113669634</float>
            <float>0.0262717</float>
            <float>-0.5028849</float>
            <float>0.880460262</float>
            <float>0.4769983</float>
            <float>0.083594285</float>
            <float>-0.7224364</float>
            <float>1.25406551</float>
            <float>0.06903994</float>
            <float>0.3096716</float>
            <float>-0.206631541</float>
            <float>0.6955366</float>
            <float>1.89837539</float>
            <float>1.83258772</float>
          </ArrayOfFloat>
          <ArrayOfFloat>
            <float>1.32755709</float>
            <float>-0.0777396</float>
            <float>1.56799364</float>
            <float>0.233261868</float>
            <float>-0.739788532</float>
            <float>-0.972992659</float>
            <float>0.0774854645</float>
            <float>-0.231017247</float>
            <float>1.98019373</float>
            <float>0.437438458</float>
            <float>0.8131585</float>
            <float>-0.307319582</float>
            <float>-0.6381521</float>
            <float>0.053940203</float>
            <float>-0.5983838</float>
            <float>-1</float>
            <float>-0.6419692</float>
            <float>-0.5825093</float>
            <float>-0.4362713</float>
            <float>-0.6644597</float>
          </ArrayOfFloat>
          <ArrayOfFloat>
            <float>-0.943655</float>
            <float>1.2666285</float>
            <float>0.45127818</float>
            <float>1.30393648</float>
            <float>-0.496559739</float>
            <float>1.36304545</float>
            <float>-0.859037</float>
            <float>-0.74153924</float>
            <float>0.776742935</float>
            <float>0.840604544</float>
            <float>-0.929738939</float>
            <float>0.8450563</float>
            <float>-0.786187649</float>
            <float>0.7210834</float>
            <float>-0.860592365</float>
            <float>-0.60111</float>
            <float>0.960863352</float>
            <float>0.550766468</float>
            <float>1.97473085</float>
            <float>0.2762551</float>
          </ArrayOfFloat>
          <ArrayOfFloat>
            <float>-0.96826005</float>
            <float>0.104825616</float>
            <float>-0.9787457</float>
            <float>1.74262619</float>
            <float>-0.472434163</float>
            <float>0.0422634445</float>
            <float>0.75966835</float>
            <float>0.1879844</float>
            <float>-0.721601665</float>
            <float>-0.0141829252</float>
            <float>0.04179315</float>
            <float>-0.366969079</float>
            <float>-0.653173268</float>
            <float>1.77118552</float>
            <float>0.0168176778</float>
            <float>0.3848214</float>
            <float>0.991934061</float>
            <float>-0.0267924052</float>
            <float>0.209661126</float>
            <float>0.0432800055</float>
          </ArrayOfFloat>
          <ArrayOfFloat>
            <float>-0.195835337</float>
            <float>0.104962468</float>
            <float>-0.242895484</float>
            <float>-0.678588152</float>
            <float>0.104287982</float>
            <float>-0.496350676</float>
            <float>1.538007</float>
            <float>0.469244927</float>
            <float>0.657734156</float>
            <float>-0.14279139</float>
            <float>1.183946</float>
            <float>0.9155309</float>
            <float>0.359793633</float>
            <float>0.688950539</float>
            <float>-0.00667274</float>
            <float>0.706941843</float>
            <float>0.115024559</float>
            <float>0.746343136</float>
            <float>-0.604694843</float>
            <float>-0.769402</float>
          </ArrayOfFloat>
          <ArrayOfFloat>
            <float>-0.0930739641</float>
            <float>0.284918517</float>
            <float>-0.5197964</float>
            <float>0.173229337</float>
            <float>-0.5859723</float>
            <float>0.9560044</float>
            <float>-0.89724946</float>
            <float>-0.4611305</float>
            <float>-0.4202603</float>
            <float>-0.369807124</float>
            <float>0.404688567</float>
            <float>-0.8599329</float>
            <float>-0.145502925</float>
            <float>1.8972249</float>
            <float>-0.04612434</float>
            <float>0.323957175</float>
            <float>-0.7641337</float>
            <float>-0.255988955</float>
            <float>-0.07287173</float>
            <float>0.8197727</float>
          </ArrayOfFloat>
        </ArrayOfArrayOfFloat>
        <ArrayOfArrayOfFloat>
          <ArrayOfFloat>
            <float>0.0519794226</float>
            <float>0.117969871</float>
            <float>-0.2708794</float>
            <float>1.04841924</float>
            <float>0.994783163</float>
            <float>1.43048429</float>
            <float>-0.8351908</float>
            <float>0.32244727</float>
            <float>-0.5767956</float>
            <float>0.2991514</float>
            <float>0.0529571027</float>
            <float>0.3684413</float>
            <float>-0.257878661</float>
            <float>0.827735662</float>
            <float>-0.6434495</float>
            <float>-0.0586946756</float>
            <float>-0.09808641</float>
            <float>0.5804189</float>
            <float>0.793382049</float>
            <float>-0.291382432</float>
          </ArrayOfFloat>
          <ArrayOfFloat>
            <float>-0.9144769</float>
            <float>0.2626898</float>
            <float>-0.728549242</float>
            <float>1.26845527</float>
            <float>-0.843498</float>
            <float>0.07349408</float>
            <float>0.2816076</float>
            <float>0.562936544</float>
            <float>0.100979939</float>
            <float>-0.02417171</float>
            <float>-0.8000417</float>
            <float>0.07805199</float>
            <float>0.6602771</float>
            <float>0.401032418</float>
            <float>-0.9012239</float>
            <float>-0.5803454</float>
            <float>1.70601881</float>
            <float>0.6568434</float>
            <float>-0.358061552</float>
            <float>-0.7080307</float>
          </ArrayOfFloat>
        </ArrayOfArrayOfFloat>
      </axons>
    </NeuralNetwork>
    <NeuralNetwork>
      <layers>
        <int>8</int>
        <int>20</int>
        <int>20</int>
        <int>2</int>
      </layers>
      <neurons>
        <ArrayOfFloat>
          <float>0.4963174</float>
          <float>0.473147184</float>
          <float>0.1659425</float>
          <float>0.140485689</float>
          <float>0.454072118</float>
          <float>0.7065554</float>
          <float>-0.318756938</float>
          <float>1</float>
        </ArrayOfFloat>
        <ArrayOfFloat>
          <float>-0.5374757</float>
          <float>0.885950863</float>
          <float>0.037607152</float>
          <float>0.9844815</float>
          <float>0.5111789</float>
          <float>-0.6426151</float>
          <float>0.543202162</float>
          <float>0.851807</float>
          <float>-0.777525246</float>
          <float>0.9546866</float>
          <float>0.8450486</float>
          <float>0.963244736</float>
          <float>0.257529676</float>
          <float>-0.905675769</float>
          <float>-0.114168</float>
          <float>0.9775319</float>
          <float>0.959034741</float>
          <float>0.9468101</float>
          <float>0.283439815</float>
          <float>0.436646879</float>
        </ArrayOfFloat>
        <ArrayOfFloat>
          <float>0.7719777</float>
          <float>0.9997399</float>
          <float>0.939436</float>
          <float>0.999802947</float>
          <float>0.99996084</float>
          <float>-0.99577266</float>
          <float>0.9502555</float>
          <float>0.9994539</float>
          <float>0.999448836</float>
          <float>0.9214871</float>
          <float>0.999748</float>
          <float>-0.9868663</float>
          <float>-0.530249059</float>
          <float>0.0330935456</float>
          <float>0.919450641</float>
          <float>0.999348044</float>
          <float>-0.5139188</float>
          <float>0.9883804</float>
          <float>-0.245975479</float>
          <float>0.999859333</float>
        </ArrayOfFloat>
        <ArrayOfFloat>
          <float>-0.989460647</float>
          <float>0.43079263</float>
        </ArrayOfFloat>
      </neurons>
      <axons>
        <ArrayOfArrayOfFloat>
          <ArrayOfFloat>
            <float>0.274240464</float>
            <float>-0.412836432</float>
            <float>-0.189567685</float>
            <float>1.2413609</float>
            <float>0.6174009</float>
            <float>0.048293218</float>
            <float>-0.00382912159</float>
            <float>-1</float>
          </ArrayOfFloat>
          <ArrayOfFloat>
            <float>0.004903674</float>
            <float>0.8176272</float>
            <float>-0.488857627</float>
            <float>0.5766294</float>
            <float>1.41873145</float>
            <float>1.35785532</float>
            <float>1.49787521</float>
            <float>-0.11254704</float>
          </ArrayOfFloat>
          <ArrayOfFloat>
            <float>-0.08337557</float>
            <float>1.149339</float>
            <float>0.205218449</float>
            <float>-0.6593871</float>
            <float>-0.431544185</float>
            <float>0.568613768</float>
            <float>-0.3060161</float>
            <float>-0.7095705</float>
          </ArrayOfFloat>
          <ArrayOfFloat>
            <float>1.62577415</float>
            <float>0.6061313</float>
            <float>1.755825</float>
            <float>0.5307996</float>
            <float>-0.4739439</float>
            <float>1.501662</float>
            <float>0.0610786639</float>
            <float>0.139582515</float>
          </ArrayOfFloat>
          <ArrayOfFloat>
            <float>-0.0933331251</float>
            <float>-0.368708849</float>
            <float>0.696683</float>
            <float>-0.9818578</float>
            <float>-0.835385561</float>
            <float>0.741931438</float>
            <float>-0.828897953</float>
            <float>0.398321122</float>
          </ArrayOfFloat>
          <ArrayOfFloat>
            <float>0.4200482</float>
            <float>-0.00174750318</float>
            <float>0.5189009</float>
            <float>-0.9100934</float>
            <float>0.024021456</float>
            <float>-0.0250917356</float>
            <float>1.20671391</float>
            <float>-0.537049055</float>
          </ArrayOfFloat>
          <ArrayOfFloat>
            <float>-0.4550022</float>
            <float>-0.272330165</float>
            <float>0.107638717</float>
            <float>0.854894638</float>
            <float>-0.7022512</float>
            <float>1.77474117</float>
            <float>0.5670085</float>
            <float>0.07106006</float>
          </ArrayOfFloat>
          <ArrayOfFloat>
            <float>-0.422926068</float>
            <float>0.7929838</float>
            <float>0.77849865</float>
            <float>1.54661059</float>
            <float>-0.9278536</float>
            <float>0.670243442</float>
            <float>-0.347799271</float>
            <float>0.587830544</float>
          </ArrayOfFloat>
          <ArrayOfFloat>
            <float>-0.7014365</float>
            <float>-0.3472821</float>
            <float>-0.843413</float>
            <float>1.819946</float>
            <float>0.0545344725</float>
            <float>-0.8646872</float>
            <float>0.804587841</float>
            <float>0.200305462</float>
          </ArrayOfFloat>
          <ArrayOfFloat>
            <float>-0.5508793</float>
            <float>0.479762048</float>
            <float>-0.341408432</float>
            <float>0.9928446</float>
            <float>0.261461</float>
            <float>1.42662382</float>
            <float>0.1647948</float>
            <float>0.771596</float>
          </ArrayOfFloat>
          <ArrayOfFloat>
            <float>0.283023566</float>
            <float>0.443878144</float>
            <float>0.773571</float>
            <float>-0.5476503</float>
            <float>1.41091776</float>
            <float>0.004170292</float>
            <float>0.0121542634</float>
            <float>0.196923628</float>
          </ArrayOfFloat>
          <ArrayOfFloat>
            <float>-0.07163608</float>
            <float>0.290261477</float>
            <float>0.759162664</float>
            <float>0.5745716</float>
            <float>-0.0247346163</float>
            <float>0.778619647</float>
            <float>-0.6380768</float>
            <float>0.938259363</float>
          </ArrayOfFloat>
          <ArrayOfFloat>
            <float>-0.9072864</float>
            <float>0.165620148</float>
            <float>1.6531198</float>
            <float>-0.8766763</float>
            <float>0.3405449</float>
            <float>0.3689389</float>
            <float>0.45972544</float>
            <float>0.215470672</float>
          </ArrayOfFloat>
          <ArrayOfFloat>
            <float>-0.9920389</float>
            <float>0.110987067</float>
            <float>0.058336854</float>
            <float>0.8012353</float>
            <float>0.121080279</float>
            <float>-0.414862752</float>
            <float>0.5635419</float>
            <float>-0.767539263</float>
          </ArrayOfFloat>
          <ArrayOfFloat>
            <float>-0.124550767</float>
            <float>0.5792756</float>
            <float>-1.08350313</float>
            <float>1.44871163</float>
            <float>0.5834899</float>
            <float>0.1484958</float>
            <float>0.6057761</float>
            <float>-0.5274296</float>
          </ArrayOfFloat>
          <ArrayOfFloat>
            <float>0.0141869765</float>
            <float>-0.976302862</float>
            <float>1.98494291</float>
            <float>1.74544847</float>
            <float>0.946576834</float>
            <float>-0.212230086</float>
            <float>-0.823642254</float>
            <float>1.576648</float>
          </ArrayOfFloat>
          <ArrayOfFloat>
            <float>-0.925896645</float>
            <float>1.5082624</float>
            <float>0.738203466</float>
            <float>-0.7750323</float>
            <float>0.0443257578</float>
            <float>0.955694437</float>
            <float>1.44536614</float>
            <float>1.43137383</float>
          </ArrayOfFloat>
          <ArrayOfFloat>
            <float>-0.369683474</float>
            <float>0.8590703</float>
            <float>0.149884373</float>
            <float>-0.8850498</float>
            <float>0.826026738</float>
            <float>-0.4544698</float>
            <float>0.765385866</float>
            <float>1.86652243</float>
          </ArrayOfFloat>
          <ArrayOfFloat>
            <float>1.55165434</float>
            <float>-0.498700023</float>
            <float>-0.871189833</float>
            <float>0.9463451</float>
            <float>0.901630759</float>
            <float>0.574275255</float>
            <float>1.57338488</float>
            <float>-0.544751942</float>
          </ArrayOfFloat>
          <ArrayOfFloat>
            <float>-0.076177</float>
            <float>0.729985654</float>
            <float>-0.457968354</float>
            <float>0.5646279</float>
            <float>-0.6373439</float>
            <float>-0.4938258</float>
            <float>-0.462652981</float>
            <float>0.648013353</float>
          </ArrayOfFloat>
        </ArrayOfArrayOfFloat>
        <ArrayOfArrayOfFloat>
          <ArrayOfFloat>
            <float>0.929604053</float>
            <float>0.872838259</float>
            <float>-0.583394766</float>
            <float>0.0349072628</float>
            <float>-0.775187254</float>
            <float>-0.0694023</float>
            <float>0.0203148853</float>
            <float>0.4842248</float>
            <float>0.6592482</float>
            <float>0.7401905</float>
            <float>-0.0178869963</float>
            <float>-0.09665371</float>
            <float>0.8306111</float>
            <float>0.4190564</float>
            <float>0.8668118</float>
            <float>-0.283799767</float>
            <float>-0.08128202</float>
            <float>0.770065069</float>
            <float>1.34764409</float>
            <float>0.206832036</float>
          </ArrayOfFloat>
          <ArrayOfFloat>
            <float>1.89329183</float>
            <float>0.107591018</float>
            <float>-0.9387448</float>
            <float>0.721874</float>
            <float>0.290128678</float>
            <float>1.15506077</float>
            <float>-0.1439884</float>
            <float>-0.194215</float>
            <float>-0.5487391</float>
            <float>1.20821261</float>
            <float>0.288987726</float>
            <float>0.3556356</float>
            <float>1.42061734</float>
            <float>-0.6551473</float>
            <float>-0.350194573</float>
            <float>1.35118842</float>
            <float>1.22707188</float>
            <float>-0.207160592</float>
            <float>1.12189353</float>
            <float>-0.5205991</float>
          </ArrayOfFloat>
          <ArrayOfFloat>
            <float>0.842247665</float>
            <float>1.74375558</float>
            <float>-0.117351651</float>
            <float>0.197649121</float>
            <float>-0.9666524</float>
            <float>1.2435019</float>
            <float>-0.0397598371</float>
            <float>1.44236159</float>
            <float>1.52910256</float>
            <float>0.740004063</float>
            <float>0.8148389</float>
            <float>0.0534747839</float>
            <float>0.890885651</float>
            <float>0.927828252</float>
            <float>1.51660991</float>
            <float>1.73519921</float>
            <float>-0.5678458</float>
            <float>-0.07334244</float>
            <float>0.160271764</float>
            <float>-0.146927953</float>
          </ArrayOfFloat>
          <ArrayOfFloat>
            <float>-1</float>
            <float>0.4998028</float>
            <float>-0.9481056</float>
            <float>-0.08039122</float>
            <float>0.0440295637</float>
            <float>-0.491756022</float>
            <float>-0.3353225</float>
            <float>0.907003164</float>
            <float>-1</float>
            <float>0.1803335</float>
            <float>0.0529772043</float>
            <float>-1</float>
            <float>0.8045342</float>
            <float>1.11343765</float>
            <float>-0.910311937</float>
            <float>0.190401748</float>
            <float>1.84449363</float>
            <float>1.26118469</float>
            <float>0.05462095</float>
            <float>0.7318702</float>
          </ArrayOfFloat>
          <ArrayOfFloat>
            <float>-0.712884665</float>
            <float>1.01698589</float>
            <float>1.47270107</float>
            <float>0.402599782</float>
            <float>-0.100232415</float>
            <float>0.339151174</float>
            <float>1.71545577</float>
            <float>-0.568078</float>
            <float>-0.8713231</float>
            <float>0.457812756</float>
            <float>1.59743655</float>
            <float>1.32059789</float>
            <float>1.32766557</float>
            <float>-0.07629155</float>
            <float>1.91588449</float>
            <float>-0.6430285</float>
            <float>0.4792693</float>
            <float>-0.55718106</float>
            <float>0.09469267</float>
            <float>0.565386057</float>
          </ArrayOfFloat>
          <ArrayOfFloat>
            <float>0.958654165</float>
            <float>-0.7729192</float>
            <float>0.600995541</float>
            <float>0.6885514</float>
            <float>1.05739343</float>
            <float>1.15963018</float>
            <float>1.27742434</float>
            <float>-0.128443122</float>
            <float>1.18126643</float>
            <float>-0.106843591</float>
            <float>0.14255631</float>
            <float>-0.7614739</float>
            <float>0.127362758</float>
            <float>1.08825767</float>
            <float>-1.09246469</float>
            <float>-0.137094855</float>
            <float>-0.6968105</float>
            <float>0.606930256</float>
            <float>-0.2440477</float>
            <float>-0.4591576</float>
          </ArrayOfFloat>
          <ArrayOfFloat>
            <float>0.0429434069</float>
            <float>0.6234634</float>
            <float>-0.4456488</float>
            <float>-0.597150564</float>
            <float>0.7215523</float>
            <float>0.04217899</float>
            <float>-0.1318835</float>
            <float>0.139283791</float>
            <float>-0.618980646</float>
            <float>-0.4785368</float>
            <float>-0.985836744</float>
            <float>1.55945706</float>
            <float>0.05584142</float>
            <float>0.165392518</float>
            <float>-0.44253844</float>
            <float>0.134117782</float>
            <float>1.15726578</float>
            <float>-0.443633437</float>
            <float>0.8366566</float>
            <float>-0.333509326</float>
          </ArrayOfFloat>
          <ArrayOfFloat>
            <float>-0.165723681</float>
            <float>0.5491754</float>
            <float>-0.434361339</float>
            <float>-0.499890685</float>
            <float>0.156497121</float>
            <float>-0.276816249</float>
            <float>0.0139039755</float>
            <float>1.84189987</float>
            <float>-0.09182966</float>
            <float>0.8810744</float>
            <float>-0.58206284</float>
            <float>0.837681532</float>
            <float>0.694702864</float>
            <float>-0.7164575</float>
            <float>-0.8515661</float>
            <float>0.357683629</float>
            <float>0.301868647</float>
            <float>-0.491489053</float>
            <float>0.695458651</float>
            <float>-0.737923861</float>
          </ArrayOfFloat>
          <ArrayOfFloat>
            <float>-0.229026914</float>
            <float>1.144925</float>
            <float>0.7482083</float>
            <float>0.6099773</float>
            <float>-0.305312276</float>
            <float>-0.304679036</float>
            <float>1.9916079</float>
            <float>-0.6024472</float>
            <float>-0.7985735</float>
            <float>-0.4869678</float>
            <float>-0.47657913</float>
            <float>0.9168556</float>
            <float>-0.207912847</float>
            <float>-0.6482975</float>
            <float>0.4655683</float>
            <float>-0.726377249</float>
            <float>0.714994431</float>
            <float>0.315128952</float>
            <float>0.3837807</float>
            <float>0.513062239</float>
          </ArrayOfFloat>
          <ArrayOfFloat>
            <float>0.7324416</float>
            <float>0.5040345</float>
            <float>1.22107387</float>
            <float>0.46772</float>
            <float>-0.339110732</float>
            <float>0.578264</float>
            <float>0.5883293</float>
            <float>0.781846166</float>
            <float>-0.543468237</float>
            <float>0.0691036</float>
            <float>-0.7297847</float>
            <float>1.80492127</float>
            <float>0.682428</float>
            <float>0.744028568</float>
            <float>-0.781594038</float>
            <float>-0.6823034</float>
            <float>0.573902845</float>
            <float>-0.649832964</float>
            <float>0.0998348</float>
            <float>0.231144071</float>
          </ArrayOfFloat>
          <ArrayOfFloat>
            <float>-0.443317115</float>
            <float>1.106815</float>
            <float>0.9180231</float>
            <float>-0.6858338</float>
            <float>1.94412088</float>
            <float>0.08373051</float>
            <float>0.376493871</float>
            <float>-0.153428674</float>
            <float>-0.285757422</float>
            <float>-0.70373404</float>
            <float>-0.870779753</float>
            <float>0.6661943</float>
            <float>0.0309005976</float>
            <float>0.02603209</float>
            <float>1.41604042</float>
            <float>1.72205853</float>
            <float>0.9956937</float>
            <float>0.353153676</float>
            <float>0.787683964</float>
            <float>0.968103647</float>
          </ArrayOfFloat>
          <ArrayOfFloat>
            <float>-0.4070187</float>
            <float>-0.07911527</float>
            <float>0.5468266</float>
            <float>-0.223992944</float>
            <float>-0.329054236</float>
            <float>-0.3980689</float>
            <float>-0.60631156</float>
            <float>-0.405872</float>
            <float>0.210869908</float>
            <float>-0.328670859</float>
            <float>-0.679930866</float>
            <float>0.1502162</float>
            <float>-0.3953184</float>
            <float>-0.349429965</float>
            <float>0.4682946</float>
            <float>0.0226782672</float>
            <float>-0.291556716</float>
            <float>-0.866049051</float>
            <float>0.755877554</float>
            <float>-0.5982226</float>
          </ArrayOfFloat>
          <ArrayOfFloat>
            <float>1.69628513</float>
            <float>-0.71734</float>
            <float>-0.4613323</float>
            <float>-0.749899864</float>
            <float>0.139383435</float>
            <float>-0.06719843</float>
            <float>-0.769901037</float>
            <float>-0.5216975</float>
            <float>-0.119752817</float>
            <float>0.968322456</float>
            <float>0.04936223</float>
            <float>0.247917056</float>
            <float>0.9006479</float>
            <float>0.08252543</float>
            <float>0.7814945</float>
            <float>1.65535045</float>
            <float>-0.5412235</float>
            <float>-0.8100445</float>
            <float>-0.0518840924</float>
            <float>1.77953792</float>
          </ArrayOfFloat>
          <ArrayOfFloat>
            <float>-0.28221786</float>
            <float>-0.9174125</float>
            <float>-0.868221641</float>
            <float>1.52294183</float>
            <float>-0.15000093</float>
            <float>1.32634664</float>
            <float>1.57980764</float>
            <float>1.22314239</float>
            <float>0.939546347</float>
            <float>-0.798599362</float>
            <float>-0.166948915</float>
            <float>-0.6256726</float>
            <float>0.548285246</float>
            <float>-0.414280534</float>
            <float>1.720017</float>
            <float>-0.8844093</float>
            <float>-0.521092653</float>
            <float>1.26738715</float>
            <float>-0.8038044</float>
            <float>1.29466915</float>
          </ArrayOfFloat>
          <ArrayOfFloat>
            <float>-0.74394083</float>
            <float>0.122776389</float>
            <float>0.678873062</float>
            <float>-0.0555449724</float>
            <float>0.0386700369</float>
            <float>-0.0468992</float>
            <float>-0.08464944</float>
            <float>-0.03364377</float>
            <float>0.278079242</float>
            <float>-0.176543117</float>
            <float>0.0545717031</float>
            <float>-0.7627859</float>
            <float>0.343409628</float>
            <float>-1</float>
            <float>0.996529341</float>
            <float>-0.129878879</float>
            <float>1.38085938</float>
            <float>0.180111051</float>
            <float>-0.3982631</float>
            <float>0.157552838</float>
          </ArrayOfFloat>
          <ArrayOfFloat>
            <float>-0.647465944</float>
            <float>0.382505625</float>
            <float>-0.607802153</float>
            <float>-0.137947917</float>
            <float>0.3366513</float>
            <float>-0.6854367</float>
            <float>0.0867896751</float>
            <float>-0.665794134</float>
            <float>-0.84083873</float>
            <float>0.06550205</float>
            <float>0.0208342727</float>
            <float>-0.213145241</float>
            <float>-0.5746736</float>
            <float>-0.710704565</float>
            <float>0.0365320444</float>
            <float>0.666613638</float>
            <float>0.218119025</float>
            <float>1.46569157</float>
            <float>0.404156446</float>
            <float>0.023337245</float>
          </ArrayOfFloat>
          <ArrayOfFloat>
            <float>0.8239901</float>
            <float>0.0397372544</float>
            <float>0.659664869</float>
            <float>0.660131</float>
            <float>1.55533433</float>
            <float>1.12300932</float>
            <float>1.56012964</float>
            <float>0.5470526</float>
            <float>0.317228049</float>
            <float>-0.701679468</float>
            <float>-0.250662923</float>
            <float>0.184763789</float>
            <float>-0.359188437</float>
            <float>0.06713021</float>
            <float>1.95158231</float>
            <float>-0.476629853</float>
            <float>0.261462182</float>
            <float>-0.926524639</float>
            <float>0.5106027</float>
            <float>0.1197201</float>
          </ArrayOfFloat>
          <ArrayOfFloat>
            <float>0.651196837</float>
            <float>-0.159981608</float>
            <float>0.473035544</float>
            <float>1.07308042</float>
            <float>1.47188592</float>
            <float>-0.802910566</float>
            <float>-0.718271</float>
            <float>0.132407457</float>
            <float>-0.06215355</float>
            <float>0.2566931</float>
            <float>0.5318346</float>
            <float>-0.0262283087</float>
            <float>-0.852793455</float>
            <float>0.226235986</float>
            <float>-0.628228664</float>
            <float>0.2728591</float>
            <float>-0.0448111147</float>
            <float>0.747077</float>
            <float>0.437946528</float>
            <float>-0.9670272</float>
          </ArrayOfFloat>
          <ArrayOfFloat>
            <float>0.6841817</float>
            <float>-0.451623</float>
            <float>-0.994389534</float>
            <float>0.02972734</float>
            <float>1.7039957</float>
            <float>1.25531244</float>
            <float>-0.144647</float>
            <float>-0.0279397015</float>
            <float>-0.890893</float>
            <float>-0.0502823368</float>
            <float>-0.123675965</float>
            <float>-0.864040852</float>
            <float>0.217662692</float>
            <float>-0.240533918</float>
            <float>0.9218526</float>
            <float>-0.8328695</float>
            <float>0.6102781</float>
            <float>1.29837775</float>
            <float>-0.8494096</float>
            <float>-0.168028235</float>
          </ArrayOfFloat>
          <ArrayOfFloat>
            <float>-0.0365987457</float>
            <float>0.225885749</float>
            <float>0.5702598</float>
            <float>0.24673596</float>
            <float>1.100702</float>
            <float>1.02571678</float>
            <float>-0.83918643</float>
            <float>1.271627</float>
            <float>0.331448048</float>
            <float>0.6548984</float>
            <float>0.896036148</float>
            <float>-0.2082644</float>
            <float>1.30897319</float>
            <float>-0.00195360673</float>
            <float>-0.0128349066</float>
            <float>0.836761236</float>
            <float>-0.09200823</float>
            <float>1.6102562</float>
            <float>1.76437151</float>
            <float>-0.5786978</float>
          </ArrayOfFloat>
        </ArrayOfArrayOfFloat>
        <ArrayOfArrayOfFloat>
          <ArrayOfFloat>
            <float>-0.210326552</float>
            <float>-0.9991052</float>
            <float>0.47152558</float>
            <float>0.492839783</float>
            <float>-0.136290878</float>
            <float>0.2597327</float>
            <float>-0.068345584</float>
            <float>-0.697604</float>
            <float>-0.216584787</float>
            <float>0.07471335</float>
            <float>1.12342727</float>
            <float>1.67354786</float>
            <float>0.835315466</float>
            <float>1.47674632</float>
            <float>-0.09898412</float>
            <float>0.0964185</float>
            <float>0.7545714</float>
            <float>0.7923362</float>
            <float>-0.3670007</float>
            <float>-0.658617</float>
          </ArrayOfFloat>
          <ArrayOfFloat>
            <float>-0.596062243</float>
            <float>1.30989313</float>
            <float>-0.6404822</float>
            <float>0.921731949</float>
            <float>0.0275546312</float>
            <float>-0.0310607962</float>
            <float>-0.8732319</float>
            <float>0.7190366</float>
            <float>0.992427349</float>
            <float>-0.6629815</float>
            <float>-0.4553541</float>
            <float>-0.0409993455</float>
            <float>0.874153137</float>
            <float>1.46917009</float>
            <float>-0.916131258</float>
            <float>0.8473978</float>
            <float>0.439117372</float>
            <float>0.0982247</float>
            <float>0.438627928</float>
            <float>0.024972558</float>
          </ArrayOfFloat>
        </ArrayOfArrayOfFloat>
      </axons>
    </NeuralNetwork>
    <NeuralNetwork>
      <layers>
        <int>8</int>
        <int>20</int>
        <int>20</int>
        <int>2</int>
      </layers>
      <neurons>
        <ArrayOfFloat>
          <float>0</float>
          <float>0.101903915</float>
          <float>0.561707139</float>
          <float>0.123202957</float>
          <float>0.492444545</float>
          <float>0.639321864</float>
          <float>-0.08728566</float>
          <float>1</float>
        </ArrayOfFloat>
        <ArrayOfFloat>
          <float>0.666</float>
          <float>-0.104193248</float>
          <float>-0.07401546</float>
          <float>-0.251211315</float>
          <float>0.730779946</float>
          <float>-0.39120093</float>
          <float>-0.127422944</float>
          <float>0.0450977348</float>
          <float>-0.042461358</float>
          <float>0.698653</float>
          <float>-0.9659407</float>
          <float>0.00483377976</float>
          <float>0.7316426</float>
          <float>0.366208643</float>
          <float>0.760391355</float>
          <float>0.914530039</float>
          <float>0.9613217</float>
          <float>0.67440474</float>
          <float>0.5646471</float>
          <float>-0.1521582</float>
        </ArrayOfFloat>
        <ArrayOfFloat>
          <float>-0.870851934</float>
          <float>0.195607051</float>
          <float>0.9929499</float>
          <float>0.925679743</float>
          <float>-0.7360735</float>
          <float>0.182773814</float>
          <float>0.5162193</float>
          <float>0.9596685</float>
          <float>0.9513547</float>
          <float>-0.2451375</float>
          <float>-0.904049</float>
          <float>-0.638742</float>
          <float>0.76881063</float>
          <float>0.7727341</float>
          <float>0.9550444</float>
          <float>-0.997695863</float>
          <float>0.472586</float>
          <float>0.274351418</float>
          <float>0.452632636</float>
          <float>-0.7740258</float>
        </ArrayOfFloat>
        <ArrayOfFloat>
          <float>-0.0228859689</float>
          <float>0.9999468</float>
        </ArrayOfFloat>
      </neurons>
      <axons>
        <ArrayOfArrayOfFloat>
          <ArrayOfFloat>
            <float>-0.231393456</float>
            <float>1.48978138</float>
            <float>0.6184209</float>
            <float>-0.247872233</float>
            <float>-0.375244975</float>
            <float>-0.145715833</float>
            <float>-0.908828259</float>
            <float>0.5334915</float>
          </ArrayOfFloat>
          <ArrayOfFloat>
            <float>1.40626192</float>
            <float>-0.9083128</float>
            <float>-0.6882682</float>
            <float>0.217717767</float>
            <float>0.434859484</float>
            <float>-0.214372039</float>
            <float>0.196874022</float>
            <float>0.2878624</float>
          </ArrayOfFloat>
          <ArrayOfFloat>
            <float>0.0260659456</float>
            <float>1.397265</float>
            <float>0.39857313</float>
            <float>-0.1784935</float>
            <float>-0.9755223</float>
            <float>0.243298411</float>
            <float>0.607808769</float>
            <float>-0.04053066</float>
          </ArrayOfFloat>
          <ArrayOfFloat>
            <float>-0.5252245</float>
            <float>0.89169</float>
            <float>-0.689094841</float>
            <float>0.321223885</float>
            <float>0.209689975</float>
            <float>-0.909975052</float>
            <float>-0.5504903</float>
            <float>0.43037805</float>
          </ArrayOfFloat>
          <ArrayOfFloat>
            <float>0.07664622</float>
            <float>1.24397027</float>
            <float>0.3355025</float>
            <float>-0.4349941</float>
            <float>-0.0606566668</float>
            <float>-0.8291931</float>
            <float>0.7583244</float>
            <float>1.2949543</float>
          </ArrayOfFloat>
          <ArrayOfFloat>
            <float>1.197161</float>
            <float>0.9995508</float>
            <float>-0.7210424</float>
            <float>-0.0273905322</float>
            <float>0.5932269</float>
            <float>-0.348356843</float>
            <float>-0.0502381474</float>
            <float>-0.180490345</float>
          </ArrayOfFloat>
          <ArrayOfFloat>
            <float>0.241532683</float>
            <float>0.8270538</float>
            <float>0.9022198</float>
            <float>-0.0590225458</float>
            <float>-0.148269773</float>
            <float>-0.173542857</float>
            <float>-0.424915433</float>
            <float>-0.5650356</float>
          </ArrayOfFloat>
          <ArrayOfFloat>
            <float>-0.6078825</float>
            <float>0.449832737</float>
            <float>0.155508637</float>
            <float>0.273019433</float>
            <float>0.212517619</float>
            <float>0.3769333</float>
            <float>-0.518832564</float>
            <float>-0.51262</float>
          </ArrayOfFloat>
          <ArrayOfFloat>
            <float>0.8041439</float>
            <float>-0.07272168</float>
            <float>0.840401947</float>
            <float>-0.18202734</float>
            <float>1.97959721</float>
            <float>-0.9769907</float>
            <float>-0.7349508</float>
            <float>-0.899090767</float>
          </ArrayOfFloat>
          <ArrayOfFloat>
            <float>1.0877142</float>
            <float>0.050200358</float>
            <float>-0.248928368</float>
            <float>0.9213605</float>
            <float>0.3725709</float>
            <float>0.474499166</float>
            <float>0.425523251</float>
            <float>0.4361729</float>
          </ArrayOfFloat>
          <ArrayOfFloat>
            <float>-0.58886385</float>
            <float>0.4495405</float>
            <float>-0.492455125</float>
            <float>0.287532121</float>
            <float>-0.787672758</float>
            <float>-0.942826033</float>
            <float>0.405194</float>
            <float>-0.8064089</float>
          </ArrayOfFloat>
          <ArrayOfFloat>
            <float>0.135375619</float>
            <float>-0.01185286</float>
            <float>-0.5025399</float>
            <float>-0.7846699</float>
            <float>-0.4382784</float>
            <float>0.345681638</float>
            <float>0.0003251901</float>
            <float>0.379849881</float>
          </ArrayOfFloat>
          <ArrayOfFloat>
            <float>-0.5281836</float>
            <float>0.0049186945</float>
            <float>1.85626435</float>
            <float>-0.585080862</float>
            <float>-0.846700668</float>
            <float>0.7873442</float>
            <float>0.3732805</float>
            <float>-0.0926727057</float>
          </ArrayOfFloat>
          <ArrayOfFloat>
            <float>-1.0230583</float>
            <float>0.00367295742</float>
            <float>0.3994319</float>
            <float>0.633802235</float>
            <float>-0.130479217</float>
            <float>1.09610689</float>
            <float>0.0482440069</float>
            <float>-0.551087141</float>
          </ArrayOfFloat>
          <ArrayOfFloat>
            <float>0.388192624</float>
            <float>-0.523308039</float>
            <float>0.487745017</float>
            <float>-0.419916749</float>
            <float>0.700284</float>
            <float>0.041487813</float>
            <float>0.6523826</float>
            <float>0.513803</float>
          </ArrayOfFloat>
          <ArrayOfFloat>
            <float>-0.183192134</float>
            <float>-0.170419842</float>
            <float>1.36940932</float>
            <float>0.358414561</float>
            <float>0.3448448</float>
            <float>0.8379247</float>
            <float>-0.753855</float>
            <float>-0.0127881765</float>
          </ArrayOfFloat>
          <ArrayOfFloat>
            <float>0.7657044</float>
            <float>-0.6534817</float>
            <float>0.432014436</float>
            <float>0.527720749</float>
            <float>1.8054539</float>
            <float>0.6962316</float>
            <float>0.253457755</float>
            <float>0.409879178</float>
          </ArrayOfFloat>
          <ArrayOfFloat>
            <float>-0.136788249</float>
            <float>-0.8812089</float>
            <float>0.444656581</float>
            <float>0.227352023</float>
            <float>0.8724313</float>
            <float>-0.0453964472</float>
            <float>1.6883235</float>
            <float>0.3775657</float>
          </ArrayOfFloat>
          <ArrayOfFloat>
            <float>-0.161880851</float>
            <float>-0.295183539</float>
            <float>-0.341843963</float>
            <float>-0.749787331</float>
            <float>1.03383112</float>
            <float>0.610558569</float>
            <float>-1.01080811</float>
            <float>-0.0335751772</float>
          </ArrayOfFloat>
          <ArrayOfFloat>
            <float>-0.705778837</float>
            <float>0.802210569</float>
            <float>1.26303172</float>
            <float>-0.152943835</float>
            <float>0.636799753</float>
            <float>-0.648765564</float>
            <float>-0.9352266</float>
            <float>-0.9061587</float>
          </ArrayOfFloat>
        </ArrayOfArrayOfFloat>
        <ArrayOfArrayOfFloat>
          <ArrayOfFloat>
            <float>0.390105844</float>
            <float>1.48214507</float>
            <float>0.5637255</float>
            <float>-0.228153586</float>
            <float>0.04652226</float>
            <float>0.45484063</float>
            <float>0.2947714</float>
            <float>0.816776037</float>
            <float>0.820545435</float>
            <float>-0.3439964</float>
            <float>0.797284365</float>
            <float>0.145259485</float>
            <float>0.492799282</float>
            <float>0.139249921</float>
            <float>0.05800462</float>
            <float>0.119589344</float>
            <float>-0.954511642</float>
            <float>0.7236059</float>
            <float>-0.3272215</float>
            <float>1.43908358</float>
          </ArrayOfFloat>
          <ArrayOfFloat>
            <float>-0.142672688</float>
            <float>-0.693695</float>
            <float>0.224981114</float>
            <float>0.138425</float>
            <float>-0.681560755</float>
            <float>0.108972743</float>
            <float>-0.584738731</float>
            <float>-0.207190126</float>
            <float>0.569819033</float>
            <float>0.40441367</float>
            <float>1.68105018</float>
            <float>-0.0002992448</float>
            <float>0.727973</float>
            <float>-0.633078</float>
            <float>0.415822953</float>
            <float>1.78268659</float>
            <float>0.00662004948</float>
            <float>0.956069946</float>
            <float>-0.9776654</float>
            <float>1.53183508</float>
          </ArrayOfFloat>
          <ArrayOfFloat>
            <float>0.136625648</float>
            <float>-0.857872</float>
            <float>0.872251749</float>
            <float>1.43803668</float>
            <float>0.6280947</float>
            <float>-0.9845617</float>
            <float>-0.5293188</float>
            <float>0.4389393</float>
            <float>0.95175904</float>
            <float>-0.4685428</float>
            <float>-0.05897081</float>
            <float>1.92090833</float>
            <float>-0.705355048</float>
            <float>1.58439279</float>
            <float>0.139769673</float>
            <float>0.764030457</float>
            <float>1.35627508</float>
            <float>0.9005647</float>
            <float>-0.3911637</float>
            <float>0.8001094</float>
          </ArrayOfFloat>
          <ArrayOfFloat>
            <float>0.858351469</float>
            <float>-0.805301666</float>
            <float>0.559274</float>
            <float>1.64671075</float>
            <float>0.528359</float>
            <float>-0.476701438</float>
            <float>1.31822753</float>
            <float>-0.202753663</float>
            <float>0.124393307</float>
            <float>0.0432535857</float>
            <float>-0.0571952276</float>
            <float>1.1297828</float>
            <float>-0.13649857</float>
            <float>-0.568222046</float>
            <float>-0.835532069</float>
            <float>-0.05893915</float>
            <float>0.7484045</float>
            <float>0.9972887</float>
            <float>0.721616</float>
            <float>-0.942379</float>
          </ArrayOfFloat>
          <ArrayOfFloat>
            <float>1.45470285</float>
            <float>-0.102635264</float>
            <float>0.81847477</float>
            <float>1.32879162</float>
            <float>0.279441327</float>
            <float>-0.74008894</float>
            <float>0.64446044</float>
            <float>0.209501877</float>
            <float>0.7014584</float>
            <float>-0.675557733</float>
            <float>-0.491248</float>
            <float>0.5112529</float>
            <float>-0.9585104</float>
            <float>-0.490337729</float>
            <float>-0.5000062</float>
            <float>0.0324782133</float>
            <float>-0.493970752</float>
            <float>-0.295034766</float>
            <float>-0.0356909037</float>
            <float>-0.013553977</float>
          </ArrayOfFloat>
          <ArrayOfFloat>
            <float>0.8560692</float>
            <float>-0.107290857</float>
            <float>0.374328345</float>
            <float>0.9329424</float>
            <float>0.448720664</float>
            <float>-0.373777866</float>
            <float>0.538041353</float>
            <float>-0.639179468</float>
            <float>-0.230103284</float>
            <float>-0.491402745</float>
            <float>-0.02698052</float>
            <float>0.283127755</float>
            <float>-0.817873</float>
            <float>1.03691888</float>
            <float>-0.2565515</float>
            <float>0.6454127</float>
            <float>-0.242325142</float>
            <float>0.149053216</float>
            <float>-0.389375567</float>
            <float>0.192239165</float>
          </ArrayOfFloat>
          <ArrayOfFloat>
            <float>0.732102633</float>
            <float>-0.290458083</float>
            <float>-0.09069526</float>
            <float>1.944462</float>
            <float>-0.3181187</float>
            <float>-0.1138705</float>
            <float>0.6519823</float>
            <float>-0.02341187</float>
            <float>0.106337652</float>
            <float>0.749562</float>
            <float>1.09259629</float>
            <float>0.5058918</float>
            <float>0.216203466</float>
            <float>0.637620449</float>
            <float>0.344715327</float>
            <float>0.604676</float>
            <float>-0.15084517</float>
            <float>0.808403</float>
            <float>-0.327355981</float>
            <float>0.5337952</float>
          </ArrayOfFloat>
          <ArrayOfFloat>
            <float>-0.632339954</float>
            <float>1.30740929</float>
            <float>0.190919042</float>
            <float>1.0443567</float>
            <float>0.6982639</float>
            <float>-0.471681237</float>
            <float>-0.55002284</float>
            <float>0.518093348</float>
            <float>0.691021442</float>
            <float>0.237349719</float>
            <float>0.7211268</float>
            <float>0.9089248</float>
            <float>0.6051624</float>
            <float>1.96873832</float>
            <float>1.38583469</float>
            <float>-0.185848653</float>
            <float>0.102648616</float>
            <float>0.8549679</float>
            <float>-0.5863673</float>
            <float>-0.9940877</float>
          </ArrayOfFloat>
          <ArrayOfFloat>
            <float>-0.135942668</float>
            <float>1.89457738</float>
            <float>-0.2924066</float>
            <float>0.273964137</float>
            <float>0.114806704</float>
            <float>-0.6359627</float>
            <float>-0.343495071</float>
            <float>0.439391345</float>
            <float>0.5715374</float>
            <float>0.850614548</float>
            <float>-0.144392848</float>
            <float>1.88670492</float>
            <float>0.191044927</float>
            <float>0.967291653</float>
            <float>0.2700834</float>
            <float>0.599224567</float>
            <float>0.05994141</float>
            <float>0.1831404</float>
            <float>-0.520648956</float>
            <float>0.4497778</float>
          </ArrayOfFloat>
          <ArrayOfFloat>
            <float>-0.9328892</float>
            <float>-0.132920384</float>
            <float>1.93459308</float>
            <float>0.853112936</float>
            <float>1.2490195</float>
            <float>0.412827</float>
            <float>1.45959878</float>
            <float>-0.1519577</float>
            <float>0.313338727</float>
            <float>0.0157589186</float>
            <float>0.3844058</float>
            <float>-0.7534191</float>
            <float>0.0965701342</float>
            <float>-0.285239637</float>
            <float>1.42921424</float>
            <float>-0.297347426</float>
            <float>0.02422501</float>
            <float>-1</float>
            <float>0.5494406</float>
            <float>-0.6138513</float>
          </ArrayOfFloat>
          <ArrayOfFloat>
            <float>-0.901512146</float>
            <float>-0.927701235</float>
            <float>-0.3280233</float>
            <float>1.70116568</float>
            <float>0.8291421</float>
            <float>-0.1339904</float>
            <float>1.78513789</float>
            <float>0.013237834</float>
            <float>0.929317</float>
            <float>-0.171912327</float>
            <float>1.38818336</float>
            <float>0.570345163</float>
            <float>0.265805542</float>
            <float>0.0178176165</float>
            <float>-0.92560935</float>
            <float>0.2711268</float>
            <float>-0.328467816</float>
            <float>1.71829188</float>
            <float>-0.08644974</float>
            <float>0.3960304</float>
          </ArrayOfFloat>
          <ArrayOfFloat>
            <float>1.56830692</float>
            <float>0.444637269</float>
            <float>-0.667696238</float>
            <float>0.6413734</float>
            <float>0.603780746</float>
            <float>0.802108765</float>
            <float>1.77456868</float>
            <float>0.2189318</float>
            <float>0.000821254042</float>
            <float>0.7499912</float>
            <float>1.01411486</float>
            <float>-0.374298453</float>
            <float>-0.545288</float>
            <float>-0.6243541</float>
            <float>-0.326769471</float>
            <float>0.524876356</float>
            <float>-0.307648063</float>
            <float>-0.7706044</float>
            <float>0.08740771</float>
            <float>-0.432961345</float>
          </ArrayOfFloat>
          <ArrayOfFloat>
            <float>0.581780434</float>
            <float>0.870266438</float>
            <float>0.29139775</float>
            <float>-0.193223268</float>
            <float>0.286541969</float>
            <float>0.07034983</float>
            <float>-0.07175485</float>
            <float>-0.926038265</float>
            <float>0.9537375</float>
            <float>0.3381767</float>
            <float>-0.441581368</float>
            <float>-0.312609732</float>
            <float>0.277255774</float>
            <float>0.485933751</float>
            <float>0.855237246</float>
            <float>0.0613816977</float>
            <float>-0.9689808</float>
            <float>0.2625334</float>
            <float>-0.7213867</float>
            <float>0.0124093294</float>
          </ArrayOfFloat>
          <ArrayOfFloat>
            <float>0.3927016</float>
            <float>-0.241337657</float>
            <float>1.73539078</float>
            <float>1.62291408</float>
            <float>-0.841895759</float>
            <float>-0.888344049</float>
            <float>-0.4017495</float>
            <float>-0.00741728628</float>
            <float>0.208668351</float>
            <float>-0.31234017</float>
            <float>-0.18203935</float>
            <float>0.855828166</float>
            <float>0.151702285</float>
            <float>-0.801185369</float>
            <float>0.7726395</float>
            <float>0.7822876</float>
            <float>0.650586843</float>
            <float>0.337104559</float>
            <float>-0.6689458</float>
            <float>0.361972064</float>
          </ArrayOfFloat>
          <ArrayOfFloat>
            <float>-0.159209415</float>
            <float>-1.06443632</float>
            <float>0.995178</float>
            <float>0.772274256</float>
            <float>1.03915715</float>
            <float>0.3280413</float>
            <float>-0.0113669634</float>
            <float>0.0262717</float>
            <float>-0.7220681</float>
            <float>0.880460262</float>
            <float>0.4769983</float>
            <float>0.083594285</float>
            <float>-0.7224364</float>
            <float>1.25406551</float>
            <float>0.06903994</float>
            <float>0.3096716</float>
            <float>-0.206631541</float>
            <float>0.6955366</float>
            <float>1.89837539</float>
            <float>1.83258772</float>
          </ArrayOfFloat>
          <ArrayOfFloat>
            <float>-0.793653965</float>
            <float>-0.724807739</float>
            <float>1.56799364</float>
            <float>0.233261868</float>
            <float>-0.739788532</float>
            <float>-0.972992659</float>
            <float>0.163128972</float>
            <float>-0.231017247</float>
            <float>1.98019373</float>
            <float>0.437438458</float>
            <float>0.8131585</float>
            <float>-0.307319582</float>
            <float>-0.6381521</float>
            <float>0.053940203</float>
            <float>-0.5954195</float>
            <float>-1</float>
            <float>-0.6419692</float>
            <float>0.857923269</float>
            <float>-0.4362713</float>
            <float>-0.6644597</float>
          </ArrayOfFloat>
          <ArrayOfFloat>
            <float>-0.943655</float>
            <float>1.2666285</float>
            <float>0.45127818</float>
            <float>0.954973459</float>
            <float>-0.496559739</float>
            <float>1.36304545</float>
            <float>-0.859037</float>
            <float>-0.74153924</float>
            <float>0.776742935</float>
            <float>0.840604544</float>
            <float>-0.929738939</float>
            <float>0.8450563</float>
            <float>-0.786187649</float>
            <float>0.7210834</float>
            <float>-0.860592365</float>
            <float>-0.537808657</float>
            <float>0.960863352</float>
            <float>0.550766468</float>
            <float>1.97473085</float>
            <float>0.2762551</float>
          </ArrayOfFloat>
          <ArrayOfFloat>
            <float>-0.6295078</float>
            <float>0.104825616</float>
            <float>-0.9787457</float>
            <float>1.74262619</float>
            <float>-0.472434163</float>
            <float>0.0826323256</float>
            <float>0.75966835</float>
            <float>0.1879844</float>
            <float>-0.721601665</float>
            <float>-0.0141829252</float>
            <float>0.04976626</float>
            <float>-0.353042066</float>
            <float>-0.653173268</float>
            <float>1.74183369</float>
            <float>0.0168176778</float>
            <float>0.3848214</float>
            <float>0.991934061</float>
            <float>-0.0267924052</float>
            <float>0.209661126</float>
            <float>0.0432800055</float>
          </ArrayOfFloat>
          <ArrayOfFloat>
            <float>-0.150462329</float>
            <float>0.104962468</float>
            <float>-0.242895484</float>
            <float>-0.678588152</float>
            <float>0.104287982</float>
            <float>-0.494397342</float>
            <float>1.538007</float>
            <float>0.469244927</float>
            <float>0.657734156</float>
            <float>-0.14279139</float>
            <float>1.183946</float>
            <float>0.7154873</float>
            <float>0.359793633</float>
            <float>0.688950539</float>
            <float>0.0422779545</float>
            <float>0.706941843</float>
            <float>0.115024559</float>
            <float>0.746343136</float>
            <float>-0.604694843</float>
            <float>-0.769402</float>
          </ArrayOfFloat>
          <ArrayOfFloat>
            <float>-0.06205261</float>
            <float>0.284918517</float>
            <float>-0.5011417</float>
            <float>0.255791545</float>
            <float>-0.558965147</float>
            <float>0.9560044</float>
            <float>-0.89724946</float>
            <float>-0.4611305</float>
            <float>-0.4202603</float>
            <float>-0.369807124</float>
            <float>0.404688567</float>
            <float>-0.8599329</float>
            <float>-0.154590145</float>
            <float>-0.5337553</float>
            <float>1.76725507</float>
            <float>0.323957175</float>
            <float>-0.7641337</float>
            <float>-0.111535192</float>
            <float>-0.008082839</float>
            <float>0.8197727</float>
          </ArrayOfFloat>
        </ArrayOfArrayOfFloat>
        <ArrayOfArrayOfFloat>
          <ArrayOfFloat>
            <float>0.0519794226</float>
            <float>0.117969871</float>
            <float>-0.2708794</float>
            <float>1.04841924</float>
            <float>0.994783163</float>
            <float>1.35638142</float>
            <float>-0.8351908</float>
            <float>0.178341955</float>
            <float>-0.5767956</float>
            <float>0.2991514</float>
            <float>0.0529571027</float>
            <float>0.3684413</float>
            <float>-0.257878661</float>
            <float>0.827735662</float>
            <float>-0.6434495</float>
            <float>-0.0586946756</float>
            <float>-0.09808641</float>
            <float>0.5804189</float>
            <float>1.5935626</float>
            <float>-0.294293523</float>
          </ArrayOfFloat>
          <ArrayOfFloat>
            <float>-0.9144769</float>
            <float>0.2626898</float>
            <float>-0.728549242</float>
            <float>1.26845527</float>
            <float>-0.843498</float>
            <float>0.07349408</float>
            <float>0.2816076</float>
            <float>0.562936544</float>
            <float>0.06402136</float>
            <float>-0.02417171</float>
            <float>-0.8000417</float>
            <float>0.07805199</float>
            <float>0.6602771</float>
            <float>0.401032418</float>
            <float>-0.9012239</float>
            <float>-0.5803454</float>
            <float>1.70601881</float>
            <float>0.6568434</float>
            <float>-0.358061552</float>
            <float>-0.7080307</float>
          </ArrayOfFloat>
        </ArrayOfArrayOfFloat>
      </axons>
    </NeuralNetwork>
    <NeuralNetwork>
      <layers>
        <int>8</int>
        <int>20</int>
        <int>20</int>
        <int>2</int>
      </layers>
      <neurons>
        <ArrayOfFloat>
          <float>0</float>
          <float>0.190864354</float>
          <float>0.49076</float>
          <float>0.10238719</float>
          <float>0.4846578</float>
          <float>0.7651039</float>
          <float>-0.06446918</float>
          <float>1</float>
        </ArrayOfFloat>
        <ArrayOfFloat>
          <float>0.7097041</float>
          <float>-0.165402666</float>
          <float>0.0774991661</float>
          <float>-0.238439232</float>
          <float>0.8959773</float>
          <float>-0.318084866</float>
          <float>-0.157632083</float>
          <float>0.113079257</float>
          <float>0.9892207</float>
          <float>0.7516687</float>
          <float>-0.967378</float>
          <float>0.102308095</float>
          <float>0.7293403</float>
          <float>0.5480064</float>
          <float>0.735548854</float>
          <float>0.9731219</float>
          <float>0.8931598</float>
          <float>0.6505445</float>
          <float>0.619790256</float>
          <float>-0.272813261</float>
        </ArrayOfFloat>
        <ArrayOfFloat>
          <float>-0.3438657</float>
          <float>0.4942159</float>
          <float>0.9977126</float>
          <float>0.8105418</float>
          <float>-0.0205424</float>
          <float>0.2899625</float>
          <float>0.669874549</float>
          <float>0.99968785</float>
          <float>0.9893081</float>
          <float>0.4019362</float>
          <float>-0.432026535</float>
          <float>-0.5947827</float>
          <float>0.981682062</float>
          <float>0.6378357</float>
          <float>0.9621235</float>
          <float>-0.877552</float>
          <float>0.902274847</float>
          <float>-0.337265521</float>
          <float>0.618401647</float>
          <float>-0.996991158</float>
        </ArrayOfFloat>
        <ArrayOfFloat>
          <float>0.223686039</float>
          <float>0.9999922</float>
        </ArrayOfFloat>
      </neurons>
      <axons>
        <ArrayOfArrayOfFloat>
          <ArrayOfFloat>
            <float>-0.231393456</float>
            <float>1.48978138</float>
            <float>0.5649502</float>
            <float>-0.247872233</float>
            <float>-0.375244975</float>
            <float>-0.0782277063</float>
            <float>-0.908828259</float>
            <float>0.5334915</float>
          </ArrayOfFloat>
          <ArrayOfFloat>
            <float>1.40626192</float>
            <float>-0.9083128</float>
            <float>-0.6882682</float>
            <float>0.217717767</float>
            <float>0.434859484</float>
            <float>-0.214372039</float>
            <float>0.196874022</float>
            <float>0.2878624</float>
          </ArrayOfFloat>
          <ArrayOfFloat>
            <float>0.0260659456</float>
            <float>1.397265</float>
            <float>0.39857313</float>
            <float>-0.1784935</float>
            <float>-0.9755223</float>
            <float>0.243298411</float>
            <float>0.607808769</float>
            <float>-0.04053066</float>
          </ArrayOfFloat>
          <ArrayOfFloat>
            <float>-0.5252245</float>
            <float>0.89169</float>
            <float>-0.6468943</float>
            <float>0.321223885</float>
            <float>0.209689975</float>
            <float>-0.909975052</float>
            <float>-0.5504903</float>
            <float>0.43037805</float>
          </ArrayOfFloat>
          <ArrayOfFloat>
            <float>0.07664622</float>
            <float>1.24397027</float>
            <float>0.3355025</float>
            <float>-0.4349941</float>
            <float>-0.0606566668</float>
            <float>-0.8291931</float>
            <float>0.7583244</float>
            <float>1.8066026</float>
          </ArrayOfFloat>
          <ArrayOfFloat>
            <float>1.197161</float>
            <float>0.9995508</float>
            <float>-0.7210424</float>
            <float>-0.0992912054</float>
            <float>0.5932269</float>
            <float>-0.348356843</float>
            <float>-0.0502381474</float>
            <float>-0.180490345</float>
          </ArrayOfFloat>
          <ArrayOfFloat>
            <float>0.241532683</float>
            <float>0.8270538</float>
            <float>0.9022198</float>
            <float>-0.0590225458</float>
            <float>-0.148269773</float>
            <float>-0.173542857</float>
            <float>-0.424915433</float>
            <float>-0.5762984</float>
          </ArrayOfFloat>
          <ArrayOfFloat>
            <float>-0.6078825</float>
            <float>0.5086005</float>
            <float>0.155508637</float>
            <float>0.273019433</float>
            <float>0.212517619</float>
            <float>0.3769333</float>
            <float>-0.518832564</float>
            <float>-0.51262</float>
          </ArrayOfFloat>
          <ArrayOfFloat>
            <float>0.8041439</float>
            <float>-0.07272168</float>
            <float>0.838907957</float>
            <float>-0.18202734</float>
            <float>1.97959721</float>
            <float>-0.9769907</float>
            <float>-0.7349508</float>
            <float>1.9704386</float>
          </ArrayOfFloat>
          <ArrayOfFloat>
            <float>1.0877142</float>
            <float>0.050200358</float>
            <float>-0.225690633</float>
            <float>0.9213605</float>
            <float>0.437096566</float>
            <float>0.474499166</float>
            <float>0.425523251</float>
            <float>0.4361729</float>
          </ArrayOfFloat>
          <ArrayOfFloat>
            <float>-0.58886385</float>
            <float>0.5142176</float>
            <float>-0.492455125</float>
            <float>0.287532121</float>
            <float>-0.787672758</float>
            <float>-0.942826033</float>
            <float>0.405194</float>
            <float>-0.8064089</float>
          </ArrayOfFloat>
          <ArrayOfFloat>
            <float>0.135375619</float>
            <float>-0.01185286</float>
            <float>-0.5025399</float>
            <float>-0.7846699</float>
            <float>-0.4382784</float>
            <float>0.345681638</float>
            <float>0.0003251901</float>
            <float>0.379849881</float>
          </ArrayOfFloat>
          <ArrayOfFloat>
            <float>-0.5281836</float>
            <float>0.0049186945</float>
            <float>1.85626435</float>
            <float>-0.585080862</float>
            <float>-0.846700668</float>
            <float>0.7873442</float>
            <float>0.3732805</float>
            <float>-0.0926727057</float>
          </ArrayOfFloat>
          <ArrayOfFloat>
            <float>-1.0230583</float>
            <float>0.00367295742</float>
            <float>0.3994319</float>
            <float>0.633802235</float>
            <float>-0.130479217</float>
            <float>1.29180145</float>
            <float>0.3122305</float>
            <float>-0.551087141</float>
          </ArrayOfFloat>
          <ArrayOfFloat>
            <float>0.388192624</float>
            <float>-0.429190278</float>
            <float>0.487745017</float>
            <float>-0.419916749</float>
            <float>0.700284</float>
            <float>0.0197543819</float>
            <float>0.6523826</float>
            <float>0.513803</float>
          </ArrayOfFloat>
          <ArrayOfFloat>
            <float>-0.183192134</float>
            <float>-0.32210958</float>
            <float>1.36940932</float>
            <float>0.358414561</float>
            <float>0.3448448</float>
            <float>1.69626188</float>
            <float>-0.753855</float>
            <float>-0.0127881765</float>
          </ArrayOfFloat>
          <ArrayOfFloat>
            <float>0.7657044</float>
            <float>-0.6534817</float>
            <float>0.432014436</float>
            <float>0.646590948</float>
            <float>1.8054539</float>
            <float>0.022855401</float>
            <float>0.2877433</float>
            <float>0.409879178</float>
          </ArrayOfFloat>
          <ArrayOfFloat>
            <float>-0.0117412815</float>
            <float>-0.8812089</float>
            <float>0.444656581</float>
            <float>0.227352023</float>
            <float>0.96758604</float>
            <float>-0.0453964472</float>
            <float>1.6883235</float>
            <float>0.3775657</float>
          </ArrayOfFloat>
          <ArrayOfFloat>
            <float>-0.161880851</float>
            <float>-0.295183539</float>
            <float>-0.341843963</float>
            <float>-0.749787331</float>
            <float>1.03383112</float>
            <float>0.644214869</float>
            <float>-1.01080811</float>
            <float>-0.0335751772</float>
          </ArrayOfFloat>
          <ArrayOfFloat>
            <float>-0.705778837</float>
            <float>0.802210569</float>
            <float>1.26303172</float>
            <float>-0.152943835</float>
            <float>0.636799753</float>
            <float>-0.648765564</float>
            <float>-0.8795154</float>
            <float>-0.9061587</float>
          </ArrayOfFloat>
        </ArrayOfArrayOfFloat>
        <ArrayOfArrayOfFloat>
          <ArrayOfFloat>
            <float>0.390105844</float>
            <float>1.15782428</float>
            <float>0.5637255</float>
            <float>-0.228153586</float>
            <float>0.04652226</float>
            <float>0.45484063</float>
            <float>0.2947714</float>
            <float>0.816776037</float>
            <float>0.820545435</float>
            <float>-0.3439964</float>
            <float>0.797284365</float>
            <float>0.145259485</float>
            <float>0.492799282</float>
            <float>0.139249921</float>
            <float>0.126494437</float>
            <float>0.119589344</float>
            <float>-0.954511642</float>
            <float>0.8012804</float>
            <float>-0.3272215</float>
            <float>1.43908358</float>
          </ArrayOfFloat>
          <ArrayOfFloat>
            <float>-0.142672688</float>
            <float>-0.625119</float>
            <float>0.224981114</float>
            <float>0.138425</float>
            <float>-0.681560755</float>
            <float>0.0106593119</float>
            <float>-0.610513449</float>
            <float>-0.030201612</float>
            <float>0.569819033</float>
            <float>0.40441367</float>
            <float>1.68105018</float>
            <float>-0.000598073</float>
            <float>0.727973</float>
            <float>-0.7230735</float>
            <float>0.415822953</float>
            <float>1.78268659</float>
            <float>0.00662004948</float>
            <float>0.956069946</float>
            <float>-0.8880415</float>
            <float>1.53183508</float>
          </ArrayOfFloat>
          <ArrayOfFloat>
            <float>0.136625648</float>
            <float>-0.857872</float>
            <float>0.7018738</float>
            <float>1.43803668</float>
            <float>0.6280947</float>
            <float>-0.9845617</float>
            <float>-0.5293188</float>
            <float>0.4389393</float>
            <float>0.95175904</float>
            <float>-0.432018876</float>
            <float>-0.05897081</float>
            <float>0.162365317</float>
            <float>-0.720237732</float>
            <float>0.143903524</float>
            <float>0.139769673</float>
            <float>0.764030457</float>
            <float>1.35627508</float>
            <float>0.9005647</float>
            <float>-0.3911637</float>
            <float>0.8001094</float>
          </ArrayOfFloat>
          <ArrayOfFloat>
            <float>0.858351469</float>
            <float>-0.805301666</float>
            <float>0.57620573</float>
            <float>1.64671075</float>
            <float>0.5206895</float>
            <float>-0.732403338</float>
            <float>1.31822753</float>
            <float>-0.202753663</float>
            <float>0.124393307</float>
            <float>0.04420072</float>
            <float>-0.0571952276</float>
            <float>1.1297828</float>
            <float>-0.13649857</float>
            <float>-0.568222046</float>
            <float>-0.835532069</float>
            <float>-1.087014</float>
            <float>0.7484045</float>
            <float>0.9972887</float>
            <float>0.721616</float>
            <float>-0.942379</float>
          </ArrayOfFloat>
          <ArrayOfFloat>
            <float>1.45470285</float>
            <float>-0.102635264</float>
            <float>0.81847477</float>
            <float>1.32879162</float>
            <float>0.279441327</float>
            <float>-0.74008894</float>
            <float>0.64446044</float>
            <float>0.209501877</float>
            <float>0.7014584</float>
            <float>-0.675557733</float>
            <float>-0.491248</float>
            <float>0.5112529</float>
            <float>-0.9585104</float>
            <float>-0.490337729</float>
            <float>-0.5000062</float>
            <float>0.0324782133</float>
            <float>-0.493970752</float>
            <float>-0.295034766</float>
            <float>-0.0356909037</float>
            <float>-0.07759791</float>
          </ArrayOfFloat>
          <ArrayOfFloat>
            <float>0.8560692</float>
            <float>-0.06736653</float>
            <float>0.4281511</float>
            <float>0.378981531</float>
            <float>0.448720664</float>
            <float>-0.3979727</float>
            <float>0.538041353</float>
            <float>-0.639179468</float>
            <float>-0.230103284</float>
            <float>-0.491402745</float>
            <float>-0.02698052</float>
            <float>0.283127755</float>
            <float>-0.817873</float>
            <float>1.03691888</float>
            <float>-0.2565515</float>
            <float>0.6454127</float>
            <float>-0.3435923</float>
            <float>0.149053216</float>
            <float>-0.389375567</float>
            <float>0.192239165</float>
          </ArrayOfFloat>
          <ArrayOfFloat>
            <float>0.732102633</float>
            <float>-0.290458083</float>
            <float>-0.09069526</float>
            <float>1.944462</float>
            <float>-0.3181187</float>
            <float>-0.1138705</float>
            <float>0.6519823</float>
            <float>-0.02341187</float>
            <float>0.106337652</float>
            <float>0.749562</float>
            <float>1.09280431</float>
            <float>0.5058918</float>
            <float>0.233800337</float>
            <float>0.637620449</float>
            <float>0.344715327</float>
            <float>0.604676</float>
            <float>-0.15084517</float>
            <float>0.808403</float>
            <float>-0.327355981</float>
            <float>0.5337952</float>
          </ArrayOfFloat>
          <ArrayOfFloat>
            <float>-0.632339954</float>
            <float>1.30740929</float>
            <float>0.190919042</float>
            <float>0.0179321878</float>
            <float>0.6982639</float>
            <float>-0.471681237</float>
            <float>-0.55002284</float>
            <float>0.518093348</float>
            <float>1.61154675</float>
            <float>0.237349719</float>
            <float>0.7211268</float>
            <float>0.9089248</float>
            <float>0.6051624</float>
            <float>1.96873832</float>
            <float>1.38583469</float>
            <float>-0.151273131</float>
            <float>0.102648616</float>
            <float>0.8549679</float>
            <float>-0.5863673</float>
            <float>-0.9940877</float>
          </ArrayOfFloat>
          <ArrayOfFloat>
            <float>-0.4384128</float>
            <float>1.89457738</float>
            <float>-0.709836245</float>
            <float>0.273964137</float>
            <float>0.01616358</float>
            <float>-0.6359627</float>
            <float>-0.343495071</float>
            <float>0.439391345</float>
            <float>0.5715374</float>
            <float>0.6859391</float>
            <float>-0.144392848</float>
            <float>1.88670492</float>
            <float>0.191044927</float>
            <float>0.967291653</float>
            <float>0.2700834</float>
            <float>0.599224567</float>
            <float>0.05994141</float>
            <float>0.1831404</float>
            <float>0.19751513</float>
            <float>0.4497778</float>
          </ArrayOfFloat>
          <ArrayOfFloat>
            <float>-0.9328892</float>
