<?xml version="1.0" encoding="utf-8"?>
<Data xmlns:xsd="http://www.w3.org/2001/XMLSchema" xmlns:xsi="http://www.w3.org/2001/XMLSchema-instance">
  <nets>
    <NeuralNetwork>
      <layers>
        <int>10</int>
        <int>10</int>
        <int>10</int>
        <int>3</int>
      </layers>
      <neurons>
        <ArrayOfFloat>
          <float>0</float>
          <float>0.469575167</float>
          <float>0.400672972</float>
          <float>0.346335143</float>
          <float>0.4424872</float>
          <float>0.6630696</float>
          <float>0.0134293977</float>
          <float>1</float>
          <float>0</float>
          <float>1</float>
        </ArrayOfFloat>
        <ArrayOfFloat>
          <float>-0.202856466</float>
          <float>-0.193166584</float>
          <float>0.9944441</float>
          <float>0.998560667</float>
          <float>-0.7739728</float>
          <float>-0.0135913463</float>
          <float>0.981491864</float>
          <float>-0.1230804</float>
          <float>0.196977451</float>
          <float>-0.5197745</float>
        </ArrayOfFloat>
        <ArrayOfFloat>
          <float>-0.5591805</float>
          <float>-0.457416117</float>
          <float>-0.5238321</float>
          <float>-0.7850346</float>
          <float>-0.9002365</float>
          <float>0.265900761</float>
          <float>-0.743753</float>
          <float>0.9926468</float>
          <float>0.398264319</float>
          <float>0.5160181</float>
        </ArrayOfFloat>
        <ArrayOfFloat>
          <float>-0.161973089</float>
          <float>-0.723193169</float>
          <float>-0.9991611</float>
        </ArrayOfFloat>
      </neurons>
      <axons>
        <ArrayOfArrayOfFloat>
          <ArrayOfFloat>
            <float>0.5263841</float>
            <float>-0.547649</float>
            <float>1.81597507</float>
            <float>1.27478862</float>
            <float>-0.7144957</float>
            <float>-1.01927638</float>
            <float>0.8281531</float>
            <float>0.1341942</float>
            <float>-0.0168096349</float>
            <float>-0.2709731</float>
          </ArrayOfFloat>
          <ArrayOfFloat>
            <float>0.0110154282</float>
            <float>0.729592264</float>
            <float>0.7377671</float>
            <float>-0.457047433</float>
            <float>-0.0569239855</float>
            <float>-0.955314457</float>
            <float>-0.945418358</float>
            <float>-0.0288360175</float>
            <float>0.129563034</float>
            <float>0.02462594</float>
          </ArrayOfFloat>
          <ArrayOfFloat>
            <float>-0.507843</float>
            <float>0.483994424</float>
            <float>0.611945</float>
            <float>0.219031915</float>
            <float>-0.9591403</float>
            <float>1.76974392</float>
            <float>-0.934577</float>
            <float>1.6017561</float>
            <float>0.0209149122</float>
            <float>0.0550466776</float>
          </ArrayOfFloat>
          <ArrayOfFloat>
            <float>0.4956507</float>
            <float>0.683694839</float>
            <float>0.07832192</float>
            <float>1.96692467</float>
            <float>1.4035</float>
            <float>0.8735521</float>
            <float>0.101337641</float>
            <float>1.65476286</float>
            <float>1.795096</float>
            <float>-0.2720201</float>
          </ArrayOfFloat>
          <ArrayOfFloat>
            <float>-0.003302126</float>
            <float>0.0949144959</float>
            <float>-0.1479214</float>
            <float>-0.0424878933</float>
            <float>-0.5647825</float>
            <float>-0.46582</float>
            <float>-0.6964354</float>
            <float>-0.010737746</float>
            <float>1.36301208</float>
            <float>-0.42187655</float>
          </ArrayOfFloat>
          <ArrayOfFloat>
            <float>-0.447184324</float>
            <float>1.31943107</float>
            <float>0.127447546</float>
            <float>-0.6462649</float>
            <float>0.750934243</float>
            <float>-0.5382122</float>
            <float>1.59827721</float>
            <float>-0.030226266</float>
            <float>1.41409564</float>
            <float>-0.427049041</float>
          </ArrayOfFloat>
          <ArrayOfFloat>
            <float>-0.701244235</float>
            <float>0.843482256</float>
            <float>1.94110775</float>
            <float>-0.147553891</float>
            <float>1.94400156</float>
            <float>0.263340831</float>
            <float>-0.736459732</float>
            <float>-0.5078211</float>
            <float>0.7108877</float>
            <float>0.696874142</float>
          </ArrayOfFloat>
          <ArrayOfFloat>
            <float>-0.390709758</float>
            <float>0.00660642</float>
            <float>-0.220202327</float>
            <float>0.9007573</float>
            <float>0.8048535</float>
            <float>0.0330185741</float>
            <float>1.82691574</float>
            <float>-0.800456643</float>
            <float>0.44863674</float>
            <float>0.0473466255</float>
          </ArrayOfFloat>
          <ArrayOfFloat>
            <float>-0.720011353</float>
            <float>-0.5266333</float>
            <float>-0.0330280066</float>
            <float>-0.388779759</float>
            <float>1.885157</float>
            <float>-0.675287068</float>
            <float>-0.401081681</float>
            <float>-0.9032464</float>
            <float>0.80830425</float>
            <float>1.11699867</float>
          </ArrayOfFloat>
          <ArrayOfFloat>
            <float>1.03013563</float>
            <float>-0.8502748</float>
            <float>0.04328185</float>
            <float>-0.9355028</float>
            <float>1.0154171</float>
            <float>0.00446454249</float>
            <float>0.265363783</float>
            <float>0.170479417</float>
            <float>-0.0554235578</float>
            <float>-0.4964196</float>
          </ArrayOfFloat>
        </ArrayOfArrayOfFloat>
        <ArrayOfArrayOfFloat>
          <ArrayOfFloat>
            <float>-0.8208252</float>
            <float>0.724748</float>
            <float>0.847746134</float>
            <float>0.4761124</float>
            <float>1.96428287</float>
            <float>-0.094810605</float>
            <float>-0.512782753</float>
            <float>1.46176279</float>
            <float>0.7641394</float>
            <float>-0.144457251</float>
          </ArrayOfFloat>
          <ArrayOfFloat>
            <float>1.63208556</float>
            <float>0.818523049</float>
            <float>0.5033625</float>
            <float>0.4382842</float>
            <float>0.983252764</float>
            <float>-0.934401751</float>
            <float>-0.229411483</float>
            <float>1.40533662</float>
            <float>0.6818762</float>
            <float>-0.132873312</float>
          </ArrayOfFloat>
          <ArrayOfFloat>
            <float>-0.295826942</float>
            <float>-1</float>
            <float>0.00362495473</float>
            <float>-0.6791351</float>
            <float>-0.780716658</float>
            <float>0.899645567</float>
            <float>-0.451382518</float>
            <float>1.48939943</float>
            <float>-0.404738545</float>
            <float>0.08886228</float>
          </ArrayOfFloat>
          <ArrayOfFloat>
            <float>0.695786357</float>
            <float>1.71437645</float>
            <float>-0.604242861</float>
            <float>-0.334058046</float>
            <float>0.00487876</float>
            <float>0.73667</float>
            <float>-0.232707664</float>
            <float>0.128990784</float>
            <float>1.6572454</float>
            <float>-0.5387635</float>
          </ArrayOfFloat>
          <ArrayOfFloat>
            <float>-0.08084561</float>
            <float>1.38500345</float>
            <float>1.30915618</float>
            <float>-1</float>
            <float>0.975938737</float>
            <float>0.107773267</float>
            <float>-0.682812631</float>
            <float>-0.07663314</float>
            <float>-0.1007641</float>
            <float>0.169776082</float>
          </ArrayOfFloat>
          <ArrayOfFloat>
            <float>-0.199017286</float>
            <float>0.7801965</float>
            <float>0.6726732</float>
            <float>0.6403489</float>
            <float>-0.192183539</float>
            <float>0.280254334</float>
            <float>-0.340273</float>
            <float>0.5061734</float>
            <float>0.964334965</float>
            <float>1.6626296</float>
          </ArrayOfFloat>
          <ArrayOfFloat>
            <float>0.374334931</float>
            <float>1.23258483</float>
            <float>-0.0249717031</float>
            <float>-0.334821045</float>
            <float>0.894002855</float>
            <float>-0.01650124</float>
            <float>-0.05707836</float>
            <float>1.99619138</float>
            <float>1.54189825</float>
            <float>-0.777415</float>
          </ArrayOfFloat>
          <ArrayOfFloat>
            <float>0.384784937</float>
            <float>-0.8220259</float>
            <float>0.0440801755</float>
            <float>1.869499</float>
            <float>0.604252338</float>
            <float>1.033883</float>
            <float>1.4737637</float>
            <float>1.87919271</float>
            <float>1.59366846</float>
            <float>0.457345</float>
          </ArrayOfFloat>
          <ArrayOfFloat>
            <float>-0.227973744</float>
            <float>0.8468776</float>
            <float>-0.5197022</float>
            <float>1.605444</float>
            <float>1.21754742</float>
            <float>1.11383462</float>
            <float>0.622881532</float>
            <float>-0.223901629</float>
            <float>0.435216933</float>
            <float>0.6051538</float>
          </ArrayOfFloat>
          <ArrayOfFloat>
            <float>0.7354482</float>
            <float>0.70295316</float>
            <float>0.08472299</float>
            <float>-0.466597527</float>
            <float>-0.6377127</float>
            <float>1.13730741</float>
            <float>1.2853893</float>
            <float>-0.516024053</float>
            <float>1.01605868</float>
            <float>1.4733665</float>
          </ArrayOfFloat>
        </ArrayOfArrayOfFloat>
        <ArrayOfArrayOfFloat>
          <ArrayOfFloat>
            <float>0.05746253</float>
            <float>-0.132441446</float>
            <float>-0.178357676</float>
            <float>-0.6193395</float>
            <float>0.388026446</float>
            <float>-0.9863136</float>
            <float>0.5556988</float>
            <float>0.17348969</float>
            <float>0.862297535</float>
            <float>-0.508219</float>
          </ArrayOfFloat>
          <ArrayOfFloat>
            <float>0.855900347</float>
            <float>1.60070419</float>
            <float>0.448538154</float>
            <float>-0.0227060765</float>
            <float>-0.214553714</float>
            <float>0.14012222</float>
            <float>0.2839522</float>
            <float>0.151883513</float>
            <float>-0.6996541</float>
            <float>1.20592713</float>
          </ArrayOfFloat>
          <ArrayOfFloat>
            <float>1.11540329</float>
            <float>0.352702826</float>
            <float>0.412856728</float>
            <float>0.709656</float>
            <float>1.87098181</float>
            <float>0.9903829</float>
            <float>1.90912509</float>
            <float>-0.8636408</float>
            <float>1.42274261</float>
            <float>1.55399132</float>
          </ArrayOfFloat>
        </ArrayOfArrayOfFloat>
      </axons>
    </NeuralNetwork>
    <NeuralNetwork>
      <layers>
        <int>10</int>
        <int>10</int>
        <int>10</int>
        <int>3</int>
      </layers>
      <neurons>
        <ArrayOfFloat>
          <float>0</float>
          <float>0.456311941</float>
          <float>0.421642244</float>
          <float>0.374927372</float>
          <float>0.430262476</float>
          <float>0.6603017</float>
          <float>0.00263472181</float>
          <float>1</float>
          <float>0</float>
          <float>1</float>
        </ArrayOfFloat>
        <ArrayOfFloat>
          <float>-0.120709889</float>
          <float>-0.1871221</float>
          <float>0.998446047</float>
          <float>0.9986394</float>
          <float>-0.7695957</float>
          <float>-0.0195780713</float>
          <float>0.983025849</float>
          <float>-0.131542832</float>
          <float>0.181103587</float>
          <float>-0.558921635</float>
        </ArrayOfFloat>
        <ArrayOfFloat>
          <float>-0.56671834</float>
          <float>-0.34292227</float>
          <float>-0.5588399</float>
          <float>-0.763409257</float>
          <float>-0.899270654</float>
          <float>0.1740478</float>
          <float>-0.7295491</float>
          <float>0.9921405</float>
          <float>0.360043019</float>
          <float>0.5100677</float>
        </ArrayOfFloat>
        <ArrayOfFloat>
          <float>-0.116781585</float>
          <float>-0.631097</float>
          <float>-0.9998445</float>
        </ArrayOfFloat>
      </neurons>
      <axons>
        <ArrayOfArrayOfFloat>
          <ArrayOfFloat>
            <float>0.5263841</float>
            <float>-0.547649</float>
            <float>1.81597507</float>
            <float>1.27478862</float>
            <float>-0.7144957</float>
            <float>-1.01927638</float>
            <float>0.8281531</float>
            <float>0.1341942</float>
            <float>-0.0168096349</float>
            <float>-0.2709731</float>
          </ArrayOfFloat>
          <ArrayOfFloat>
            <float>0.0110154282</float>
            <float>0.729592264</float>
            <float>0.7377671</float>
            <float>-0.457047433</float>
            <float>-0.0569239855</float>
            <float>-0.955314457</float>
            <float>-0.945418358</float>
            <float>-0.0288360175</float>
            <float>0.09226722</float>
            <float>0.02462594</float>
          </ArrayOfFloat>
          <ArrayOfFloat>
            <float>-0.507843</float>
            <float>0.513806164</float>
            <float>0.611945</float>
            <float>0.219031915</float>
            <float>0.423589915</float>
            <float>1.76974392</float>
            <float>-0.9721093</float>
            <float>1.6017561</float>
            <float>0.0209149122</float>
            <float>0.0550466776</float>
          </ArrayOfFloat>
          <ArrayOfFloat>
            <float>0.4956507</float>
            <float>0.683694839</float>
            <float>0.07832192</float>
            <float>1.96692467</float>
            <float>1.4035</float>
            <float>0.8735521</float>
            <float>0.101337641</float>
            <float>1.65476286</float>
            <float>1.795096</float>
            <float>-0.2720201</float>
          </ArrayOfFloat>
          <ArrayOfFloat>
            <float>0.06102323</float>
            <float>0.0949144959</float>
            <float>-0.1479214</float>
            <float>-0.0424878933</float>
            <float>-0.5647825</float>
            <float>-0.46582</float>
            <float>-0.6964354</float>
            <float>-0.0100482479</float>
            <float>1.36301208</float>
            <float>-0.42187655</float>
          </ArrayOfFloat>
          <ArrayOfFloat>
            <float>-0.447184324</float>
            <float>1.31943107</float>
            <float>0.25194326</float>
            <float>-0.6462649</float>
            <float>0.750934243</float>
            <float>-0.5382122</float>
            <float>1.510081</float>
            <float>-0.030226266</float>
            <float>1.41409564</float>
            <float>-0.427049041</float>
          </ArrayOfFloat>
          <ArrayOfFloat>
            <float>-0.422915369</float>
            <float>0.843482256</float>
            <float>2.02386451</float>
            <float>-0.147553891</float>
            <float>1.94400156</float>
            <float>0.263340831</float>
            <float>-0.736459732</float>
            <float>-0.5078211</float>
            <float>1.41975117</float>
            <float>0.696874142</float>
          </ArrayOfFloat>
          <ArrayOfFloat>
            <float>-0.390709758</float>
            <float>0.00660642</float>
            <float>-0.220202327</float>
            <float>0.9007573</float>
            <float>0.8048535</float>
            <float>0.0330185741</float>
            <float>1.82691574</float>
            <float>-0.800456643</float>
            <float>0.44863674</float>
            <float>0.0473466255</float>
          </ArrayOfFloat>
          <ArrayOfFloat>
            <float>-0.720011353</float>
            <float>-0.5266333</float>
            <float>-0.0206761323</float>
            <float>-0.388779759</float>
            <float>1.885157</float>
            <float>-0.675287068</float>
            <float>-0.401081681</float>
            <float>-0.9032464</float>
            <float>0.80830425</float>
            <float>1.11699867</float>
          </ArrayOfFloat>
          <ArrayOfFloat>
            <float>1.03013563</float>
            <float>-0.8502748</float>
            <float>0.04328185</float>
            <float>-0.9355028</float>
            <float>0.956430733</float>
            <float>0.00446454249</float>
            <float>0.265363783</float>
            <float>0.170479417</float>
            <float>-0.0554235578</float>
            <float>-0.4964196</float>
          </ArrayOfFloat>
        </ArrayOfArrayOfFloat>
        <ArrayOfArrayOfFloat>
          <ArrayOfFloat>
            <float>-0.8208252</float>
            <float>0.724748</float>
            <float>0.847746134</float>
            <float>0.4761124</float>
            <float>1.88755715</float>
            <float>-0.094810605</float>
            <float>-0.512782753</float>
            <float>1.46176279</float>
            <float>0.7641394</float>
            <float>-0.144457251</float>
          </ArrayOfFloat>
          <ArrayOfFloat>
            <float>1.63208556</float>
            <float>0.818523049</float>
            <float>0.5033625</float>
            <float>0.4382842</float>
            <float>0.983252764</float>
            <float>-0.934401751</float>
            <float>-0.229411483</float>
            <float>1.40533662</float>
            <float>0.701426566</float>
            <float>-0.132873312</float>
          </ArrayOfFloat>
          <ArrayOfFloat>
            <float>-0.295826942</float>
            <float>-1</float>
            <float>0.00362495473</float>
            <float>-0.6791351</float>
            <float>-0.780716658</float>
            <float>0.899645567</float>
            <float>-0.451382518</float>
            <float>1.48939943</float>
            <float>-0.404738545</float>
            <float>0.08886228</float>
          </ArrayOfFloat>
          <ArrayOfFloat>
            <float>0.695786357</float>
            <float>1.71437645</float>
            <float>-0.604242861</float>
            <float>-0.334058046</float>
            <float>0.00487876</float>
            <float>0.73667</float>
            <float>-0.232707664</float>
            <float>0.128990784</float>
            <float>1.6572454</float>
            <float>-0.5387635</float>
          </ArrayOfFloat>
          <ArrayOfFloat>
            <float>-0.08084561</float>
            <float>1.38500345</float>
            <float>1.30915618</float>
            <float>-1</float>
            <float>0.975938737</float>
            <float>0.107773267</float>
            <float>-0.682812631</float>
            <float>-0.07663314</float>
            <float>-0.1007641</float>
            <float>0.169776082</float>
          </ArrayOfFloat>
          <ArrayOfFloat>
            <float>-0.199017286</float>
            <float>0.7801965</float>
            <float>0.6726732</float>
            <float>0.6403489</float>
            <float>-0.192183539</float>
            <float>0.280254334</float>
            <float>-0.340273</float>
            <float>0.5061734</float>
            <float>0.964334965</float>
            <float>1.6626296</float>
          </ArrayOfFloat>
          <ArrayOfFloat>
            <float>0.374334931</float>
            <float>1.23258483</float>
            <float>-0.0249717031</float>
            <float>-0.334821045</float>
            <float>0.894002855</float>
            <float>-0.01650124</float>
            <float>-0.05707836</float>
            <float>1.99619138</float>
            <float>1.54189825</float>
            <float>-0.777415</float>
          </ArrayOfFloat>
          <ArrayOfFloat>
            <float>0.384784937</float>
            <float>-0.8220259</float>
            <float>0.0440801755</float>
            <float>1.869499</float>
            <float>0.604252338</float>
            <float>1.033883</float>
            <float>1.4737637</float>
            <float>1.87919271</float>
            <float>1.59366846</float>
            <float>0.457345</float>
          </ArrayOfFloat>
          <ArrayOfFloat>
            <float>-0.227973744</float>
            <float>0.8468776</float>
            <float>-0.5197022</float>
            <float>1.605444</float>
            <float>1.21754742</float>
            <float>1.11383462</float>
            <float>0.622881532</float>
            <float>-0.223901629</float>
            <float>0.435216933</float>
            <float>0.6051538</float>
          </ArrayOfFloat>
          <ArrayOfFloat>
            <float>0.7354482</float>
            <float>0.70295316</float>
            <float>0.08472299</float>
            <float>-0.466597527</float>
            <float>-0.6377127</float>
            <float>1.13730741</float>
            <float>1.2853893</float>
            <float>-0.516024053</float>
            <float>1.01605868</float>
            <float>1.46616292</float>
          </ArrayOfFloat>
        </ArrayOfArrayOfFloat>
        <ArrayOfArrayOfFloat>
          <ArrayOfFloat>
            <float>0.05746253</float>
            <float>-0.132441446</float>
            <float>-0.178357676</float>
            <float>-0.6193395</float>
            <float>0.388026446</float>
            <float>-0.9863136</float>
            <float>0.5556988</float>
            <float>0.17348969</float>
            <float>0.862297535</float>
            <float>-0.508219</float>
          </ArrayOfFloat>
          <ArrayOfFloat>
            <float>0.855900347</float>
            <float>1.60070419</float>
            <float>0.448538154</float>
            <float>-0.0227060765</float>
            <float>-0.214553714</float>
            <float>0.14012222</float>
            <float>0.2839522</float>
            <float>0.151883513</float>
            <float>-0.6996541</float>
            <float>1.20592713</float>
          </ArrayOfFloat>
          <ArrayOfFloat>
            <float>1.11540329</float>
            <float>0.352702826</float>
            <float>0.412856728</float>
            <float>0.709656</float>
            <float>1.87098181</float>
            <float>0.9903829</float>
            <float>1.90912509</float>
            <float>-0.8636408</float>
            <float>1.42274261</float>
            <float>0.0827165842</float>
          </ArrayOfFloat>
        </ArrayOfArrayOfFloat>
      </axons>
    </NeuralNetwork>
    <NeuralNetwork>
      <layers>
        <int>10</int>
        <int>10</int>
        <int>10</int>
        <int>3</int>
      </layers>
      <neurons>
        <ArrayOfFloat>
          <float>0</float>
          <float>0.4667928</float>
          <float>0.412454</float>
          <float>0.397060454</float>
          <float>0.4119348</float>
          <float>0.665528238</float>
          <float>0.034730982</float>
          <float>1</float>
          <float>0</float>
          <float>1</float>
        </ArrayOfFloat>
        <ArrayOfFloat>
          <float>-0.0809856951</float>
          <float>-0.228773788</float>
          <float>0.9983244</float>
          <float>0.998723865</float>
          <float>-0.775127769</float>
          <float>0.009521256</float>
          <float>0.979099</float>
          <float>-0.06612523</float>
          <float>0.11266087</float>
          <float>-0.568949759</float>
        </ArrayOfFloat>
        <ArrayOfFloat>
          <float>-0.5862581</float>
          <float>-0.3053029</float>
          <float>-0.417605758</float>
          <float>-0.8094116</float>
          <float>-0.9102426</float>
          <float>0.09610293</float>
          <float>-0.733660042</float>
          <float>0.9932974</float>
          <float>0.296366334</float>
          <float>0.443260133</float>
        </ArrayOfFloat>
        <ArrayOfFloat>
          <float>-0.0704228</float>
          <float>-0.592119038</float>
          <float>-0.9998927</float>
        </ArrayOfFloat>
      </neurons>
      <axons>
        <ArrayOfArrayOfFloat>
          <ArrayOfFloat>
            <float>0.5263841</float>
            <float>-0.547649</float>
            <float>1.81597507</float>
            <float>1.27478862</float>
            <float>-0.7144957</float>
            <float>-1.01927638</float>
            <float>0.8281531</float>
            <float>0.1341942</float>
            <float>-0.0168096349</float>
            <float>-0.2709731</float>
          </ArrayOfFloat>
          <ArrayOfFloat>
            <float>0.0110154282</float>
            <float>0.729592264</float>
            <float>0.7377671</float>
            <float>-0.457047433</float>
            <float>-0.0569239855</float>
            <float>-0.955314457</float>
            <float>-0.945418358</float>
            <float>-0.0288360175</float>
            <float>0.09226722</float>
            <float>0.02462594</float>
          </ArrayOfFloat>
          <ArrayOfFloat>
            <float>-0.507843</float>
            <float>0.483994424</float>
            <float>0.611945</float>
            <float>0.219031915</float>
            <float>0.423589915</float>
            <float>1.76974392</float>
            <float>-0.934577</float>
            <float>1.6017561</float>
            <float>0.0209149122</float>
            <float>0.0550466776</float>
          </ArrayOfFloat>
          <ArrayOfFloat>
            <float>0.4956507</float>
            <float>0.683694839</float>
            <float>0.07832192</float>
            <float>1.96692467</float>
            <float>1.4035</float>
            <float>0.8735521</float>
            <float>0.101337641</float>
            <float>1.65476286</float>
            <float>1.795096</float>
            <float>-0.2720201</float>
          </ArrayOfFloat>
          <ArrayOfFloat>
            <float>0.06102323</float>
            <float>0.0949144959</float>
            <float>-0.1479214</float>
            <float>-0.0424878933</float>
            <float>-0.5647825</float>
            <float>-0.46582</float>
            <float>-0.6964354</float>
            <float>-0.010737746</float>
            <float>1.36301208</float>
            <float>-0.42187655</float>
          </ArrayOfFloat>
          <ArrayOfFloat>
            <float>-0.447184324</float>
            <float>1.31943107</float>
            <float>0.25194326</float>
            <float>-0.6462649</float>
            <float>0.750934243</float>
            <float>-0.5382122</float>
            <float>1.510081</float>
            <float>-0.030226266</float>
            <float>1.41409564</float>
            <float>-0.427049041</float>
          </ArrayOfFloat>
          <ArrayOfFloat>
            <float>-0.701244235</float>
            <float>0.843482256</float>
            <float>1.94110775</float>
            <float>-0.147553891</float>
            <float>1.94400156</float>
            <float>0.263340831</float>
            <float>-0.736459732</float>
            <float>-0.5078211</float>
            <float>0.7108877</float>
            <float>0.696874142</float>
          </ArrayOfFloat>
          <ArrayOfFloat>
            <float>-0.390709758</float>
            <float>0.00660642</float>
            <float>-0.220202327</float>
            <float>0.9007573</float>
            <float>0.8048535</float>
            <float>0.0330185741</float>
            <float>1.82691574</float>
            <float>-0.800456643</float>
            <float>0.44863674</float>
            <float>0.0473466255</float>
          </ArrayOfFloat>
          <ArrayOfFloat>
            <float>-0.720011353</float>
            <float>-0.5266333</float>
            <float>-0.0330280066</float>
            <float>-0.388779759</float>
            <float>1.885157</float>
            <float>-0.675287068</float>
            <float>-0.401081681</float>
            <float>-0.9032464</float>
            <float>0.80830425</float>
            <float>1.11699867</float>
          </ArrayOfFloat>
          <ArrayOfFloat>
            <float>1.03013563</float>
            <float>-0.8502748</float>
            <float>0.04328185</float>
            <float>-0.9355028</float>
            <float>1.0154171</float>
            <float>0.00446454249</float>
            <float>0.265363783</float>
            <float>0.170479417</float>
            <float>-0.0554235578</float>
            <float>-0.4964196</float>
          </ArrayOfFloat>
        </ArrayOfArrayOfFloat>
        <ArrayOfArrayOfFloat>
          <ArrayOfFloat>
            <float>-0.8208252</float>
            <float>0.724748</float>
            <float>0.847746134</float>
            <float>0.4761124</float>
            <float>1.88755715</float>
            <float>-0.094810605</float>
            <float>-0.512782753</float>
            <float>1.46176279</float>
            <float>0.7641394</float>
            <float>-0.144457251</float>
          </ArrayOfFloat>
          <ArrayOfFloat>
            <float>1.63208556</float>
            <float>0.818523049</float>
            <float>0.5033625</float>
            <float>0.4382842</float>
            <float>0.983252764</float>
            <float>-0.934401751</float>
            <float>-0.229411483</float>
            <float>1.40533662</float>
            <float>0.6818762</float>
            <float>-0.132873312</float>
          </ArrayOfFloat>
          <ArrayOfFloat>
            <float>-0.295826942</float>
            <float>-1</float>
            <float>0.00362495473</float>
            <float>-0.6791351</float>
            <float>-0.780716658</float>
            <float>0.899645567</float>
            <float>-0.451382518</float>
            <float>1.48939943</float>
            <float>-0.404738545</float>
            <float>0.08886228</float>
          </ArrayOfFloat>
          <ArrayOfFloat>
            <float>0.695786357</float>
            <float>1.71437645</float>
            <float>-0.604242861</float>
            <float>-0.334058046</float>
            <float>0.00487876</float>
            <float>0.73667</float>
            <float>-0.232707664</float>
            <float>0.128990784</float>
            <float>1.6572454</float>
            <float>-0.5387635</float>
          </ArrayOfFloat>
          <ArrayOfFloat>
            <float>-0.08084561</float>
            <float>1.38500345</float>
            <float>1.30915618</float>
            <float>-1</float>
            <float>0.975938737</float>
            <float>0.107773267</float>
            <float>-0.682812631</float>
            <float>-0.07663314</float>
            <float>-0.1007641</float>
            <float>0.169776082</float>
          </ArrayOfFloat>
          <ArrayOfFloat>
            <float>-0.199017286</float>
            <float>0.7801965</float>
            <float>0.6726732</float>
            <float>0.6403489</float>
            <float>-0.192183539</float>
            <float>0.280254334</float>
            <float>-0.340273</float>
            <float>0.5061734</float>
            <float>0.964334965</float>
            <float>1.6626296</float>
          </ArrayOfFloat>
          <ArrayOfFloat>
            <float>0.374334931</float>
            <float>1.23258483</float>
            <float>-0.0249717031</float>
            <float>-0.334821045</float>
            <float>0.894002855</float>
            <float>-0.01650124</float>
            <float>-0.05707836</float>
            <float>1.99619138</float>
            <float>1.54189825</float>
            <float>-0.777415</float>
          </ArrayOfFloat>
          <ArrayOfFloat>
            <float>0.384784937</float>
            <float>-0.8220259</float>
            <float>0.0440801755</float>
            <float>1.869499</float>
            <float>0.604252338</float>
            <float>1.033883</float>
            <float>1.4737637</float>
            <float>1.87919271</float>
            <float>1.59366846</float>
            <float>0.457345</float>
          </ArrayOfFloat>
          <ArrayOfFloat>
            <float>-0.227973744</float>
            <float>0.8468776</float>
            <float>-0.5197022</float>
            <float>1.605444</float>
            <float>1.21754742</float>
            <float>1.11383462</float>
            <float>0.622881532</float>
            <float>-0.223901629</float>
            <float>0.435216933</float>
            <float>0.6051538</float>
          </ArrayOfFloat>
          <ArrayOfFloat>
            <float>0.7354482</float>
            <float>0.70295316</float>
            <float>0.08472299</float>
            <float>-0.466597527</float>
            <float>-0.6377127</float>
            <float>1.13730741</float>
            <float>1.2853893</float>
            <float>-0.516024053</float>
            <float>1.01605868</float>
            <float>1.46616292</float>
          </ArrayOfFloat>
        </ArrayOfArrayOfFloat>
        <ArrayOfArrayOfFloat>
          <ArrayOfFloat>
            <float>0.05746253</float>
            <float>-0.132441446</float>
            <float>-0.178357676</float>
            <float>-0.6193395</float>
            <float>0.388026446</float>
            <float>-0.9863136</float>
            <float>0.5556988</float>
            <float>0.17348969</float>
            <float>0.862297535</float>
            <float>-0.508219</float>
          </ArrayOfFloat>
          <ArrayOfFloat>
            <float>0.855900347</float>
            <float>1.60070419</float>
            <float>0.448538154</float>
            <float>-0.0227060765</float>
            <float>-0.214553714</float>
            <float>0.14012222</float>
            <float>0.2839522</float>
            <float>0.151883513</float>
            <float>-0.6996541</float>
            <float>1.20592713</float>
          </ArrayOfFloat>
          <ArrayOfFloat>
            <float>1.11540329</float>
            <float>0.352702826</float>
            <float>0.412856728</float>
            <float>0.709656</float>
            <float>1.87098181</float>
            <float>0.9903829</float>
            <float>1.90912509</float>
            <float>-0.8636408</float>
            <float>1.42274261</float>
            <float>0.0827165842</float>
          </ArrayOfFloat>
        </ArrayOfArrayOfFloat>
      </axons>
    </NeuralNetwork>
    <NeuralNetwork>
      <layers>
        <int>10</int>
        <int>10</int>
        <int>10</int>
        <int>3</int>
      </layers>
      <neurons>
        <ArrayOfFloat>
          <float>0</float>
          <float>0.448761225</float>
          <float>0.432190269</float>
          <float>0.4009364</float>
          <float>0.41258055</float>
          <float>0.6581817</float>
          <float>-0.02965536</float>
          <float>1</float>
          <float>0</float>
          <float>1</float>
        </ArrayOfFloat>
        <ArrayOfFloat>
          <float>-0.07665132</float>
          <float>-0.170432866</float>
          <float>0.9984887</float>
          <float>0.9986845</float>
          <float>-0.7573388</float>
          <float>-0.104212321</float>
          <float>0.981778264</float>
          <float>-0.182479993</float>
          <float>0.15131022</float>
          <float>-0.571583331</float>
        </ArrayOfFloat>
        <ArrayOfFloat>
          <float>-0.623238</float>
          <float>-0.267462373</float>
          <float>-0.670129061</float>
          <float>-0.784217238</float>
          <float>-0.893775</float>
          <float>0.07876885</float>
          <float>-0.768259</float>
          <float>0.9876374</float>
          <float>0.283725232</float>
          <float>0.44521156</float>
        </ArrayOfFloat>
        <ArrayOfFloat>
          <float>-0.056793388</float>
          <float>-0.623678744</float>
          <float>-0.999914169</float>
        </ArrayOfFloat>
      </neurons>
      <axons>
        <ArrayOfArrayOfFloat>
          <ArrayOfFloat>
            <float>0.5263841</float>
            <float>-0.547649</float>
            <float>1.81597507</float>
            <float>1.27478862</float>
            <float>-0.7144957</float>
            <float>-1.01927638</float>
            <float>0.8281531</float>
            <float>0.1341942</float>
            <float>-0.0168096349</float>
            <float>-0.2709731</float>
          </ArrayOfFloat>
          <ArrayOfFloat>
            <float>0.0110154282</float>
            <float>0.729592264</float>
            <float>0.7377671</float>
            <float>-0.4737693</float>
            <float>-0.0569239855</float>
            <float>-0.955314457</float>
            <float>-0.945418358</float>
            <float>-0.0288360175</float>
            <float>0.09226722</float>
            <float>0.02462594</float>
          </ArrayOfFloat>
          <ArrayOfFloat>
            <float>-0.507843</float>
            <float>0.483994424</float>
            <float>0.611945</float>
            <float>0.219031915</float>
            <float>0.423589915</float>
            <float>1.76974392</float>
            <float>-0.934577</float>
            <float>1.6017561</float>
            <float>0.0209149122</float>
            <float>0.0550466776</float>
          </ArrayOfFloat>
          <ArrayOfFloat>
            <float>0.4956507</float>
            <float>0.683694839</float>
            <float>0.07832192</float>
            <float>1.96692467</float>
            <float>1.4035</float>
            <float>0.8735521</float>
            <float>0.101337641</float>
            <float>1.65476286</float>
            <float>1.795096</float>
            <float>-0.2720201</float>
          </ArrayOfFloat>
          <ArrayOfFloat>
            <float>0.06102323</float>
            <float>0.0949144959</float>
            <float>-0.1479214</float>
            <float>-0.0424878933</float>
            <float>-0.5647825</float>
            <float>-0.46582</float>
            <float>-0.6964354</float>
            <float>-0.010737746</float>
            <float>1.36301208</float>
            <float>-0.42187655</float>
          </ArrayOfFloat>
          <ArrayOfFloat>
            <float>-0.447184324</float>
            <float>1.31943107</float>
            <float>0.25194326</float>
            <float>-0.6462649</float>
            <float>0.750934243</float>
            <float>-0.5382122</float>
            <float>1.510081</float>
            <float>-0.030226266</float>
            <float>0.37497732</float>
            <float>-0.427049041</float>
          </ArrayOfFloat>
          <ArrayOfFloat>
            <float>-0.701244235</float>
            <float>0.843482256</float>
            <float>1.94110775</float>
            <float>-0.147553891</float>
            <float>1.94400156</float>
            <float>0.263340831</float>
            <float>-0.736459732</float>
            <float>-0.5078211</float>
            <float>0.7108877</float>
            <float>0.696874142</float>
          </ArrayOfFloat>
          <ArrayOfFloat>
            <float>-0.390709758</float>
            <float>0.00660642</float>
            <float>-0.220202327</float>
            <float>0.9007573</float>
            <float>0.8048535</float>
            <float>0.0330185741</float>
            <float>1.82691574</float>
            <float>-0.800456643</float>
            <float>0.44863674</float>
            <float>0.0473466255</float>
          </ArrayOfFloat>
          <ArrayOfFloat>
            <float>-0.720011353</float>
            <float>-0.5266333</float>
            <float>-0.0330280066</float>
            <float>-0.388779759</float>
            <float>1.885157</float>
            <float>-0.675287068</float>
            <float>-0.401081681</float>
            <float>-0.9032464</float>
            <float>0.80830425</float>
            <float>1.11699867</float>
          </ArrayOfFloat>
          <ArrayOfFloat>
            <float>1.03013563</float>
            <float>-0.8502748</float>
            <float>0.04328185</float>
            <float>-0.9355028</float>
            <float>1.0154171</float>
            <float>0.00446454249</float>
            <float>0.265363783</float>
            <float>0.170479417</float>
            <float>-0.0554235578</float>
            <float>-0.4964196</float>
          </ArrayOfFloat>
        </ArrayOfArrayOfFloat>
        <ArrayOfArrayOfFloat>
          <ArrayOfFloat>
            <float>-0.8208252</float>
            <float>0.724748</float>
            <float>0.847746134</float>
            <float>0.4761124</float>
            <float>1.88755715</float>
            <float>-0.094810605</float>
            <float>-0.512782753</float>
            <float>1.46176279</float>
            <float>0.7641394</float>
            <float>-0.144457251</float>
          </ArrayOfFloat>
          <ArrayOfFloat>
            <float>1.63208556</float>
            <float>0.818523049</float>
            <float>0.5033625</float>
            <float>0.4382842</float>
            <float>0.983252764</float>
            <float>-0.934401751</float>
            <float>-0.229411483</float>
            <float>1.40533662</float>
            <float>0.6818762</float>
            <float>-0.132873312</float>
          </ArrayOfFloat>
          <ArrayOfFloat>
            <float>-0.295826942</float>
            <float>-1</float>
            <float>0.00362495473</float>
            <float>-0.6791351</float>
            <float>-0.780716658</float>
            <float>0.899645567</float>
            <float>-0.451382518</float>
            <float>1.48939943</float>
            <float>-0.404738545</float>
            <float>0.08886228</float>
          </ArrayOfFloat>
          <ArrayOfFloat>
            <float>0.695786357</float>
            <float>1.71437645</float>
            <float>-0.604242861</float>
            <float>-0.334058046</float>
            <float>0.00487876</float>
            <float>0.73667</float>
            <float>-0.232707664</float>
            <float>0.128990784</float>
            <float>1.6572454</float>
            <float>-0.5387635</float>
          </ArrayOfFloat>
          <ArrayOfFloat>
            <float>-0.08084561</float>
            <float>1.38500345</float>
            <float>1.30915618</float>
            <float>-1</float>
            <float>0.975938737</float>
            <float>0.107773267</float>
            <float>-0.682812631</float>
            <float>-0.07662281</float>
            <float>-0.1007641</float>
            <float>0.169776082</float>
          </ArrayOfFloat>
          <ArrayOfFloat>
            <float>-0.199017286</float>
            <float>0.7801965</float>
            <float>0.6726732</float>
            <float>0.6403489</float>
            <float>-0.192183539</float>
            <float>0.280254334</float>
            <float>-0.340273</float>
            <float>0.5061734</float>
            <float>0.964334965</float>
            <float>1.6626296</float>
          </ArrayOfFloat>
          <ArrayOfFloat>
            <float>0.374334931</float>
            <float>1.23258483</float>
            <float>-0.0249717031</float>
            <float>-0.334821045</float>
            <float>0.894002855</float>
            <float>-0.01650124</float>
            <float>-0.05707836</float>
            <float>1.99619138</float>
            <float>1.54189825</float>
            <float>-0.777415</float>
          </ArrayOfFloat>
          <ArrayOfFloat>
            <float>0.384784937</float>
            <float>-0.8220259</float>
            <float>0.0440801755</float>
            <float>1.869499</float>
            <float>0.604252338</float>
            <float>1.033883</float>
            <float>1.4737637</float>
            <float>1.87919271</float>
            <float>1.59366846</float>
            <float>0.457345</float>
          </ArrayOfFloat>
          <ArrayOfFloat>
            <float>-0.227973744</float>
            <float>0.8468776</float>
            <float>-0.5197022</float>
            <float>1.605444</float>
            <float>1.21754742</float>
            <float>1.11383462</float>
            <float>0.622881532</float>
            <float>-0.223901629</float>
            <float>0.435216933</float>
            <float>0.6051538</float>
          </ArrayOfFloat>
          <ArrayOfFloat>
            <float>0.7354482</float>
            <float>0.70295316</float>
            <float>0.08472299</float>
            <float>-0.466597527</float>
            <float>-0.6377127</float>
            <float>1.13730741</float>
            <float>1.2853893</float>
            <float>-0.516024053</float>
            <float>1.01605868</float>
            <float>1.46616292</float>
          </ArrayOfFloat>
        </ArrayOfArrayOfFloat>
        <ArrayOfArrayOfFloat>
          <ArrayOfFloat>
            <float>0.05746253</float>
            <float>-0.132441446</float>
            <float>-0.178357676</float>
            <float>-0.6193395</float>
            <float>0.388026446</float>
            <float>-0.9863136</float>
            <float>0.5556988</float>
            <float>0.17348969</float>
            <float>0.862297535</float>
            <float>-0.508219</float>
          </ArrayOfFloat>
          <ArrayOfFloat>
            <float>0.855900347</float>
            <float>1.60070419</float>
            <float>0.448538154</float>
            <float>-0.07407765</float>
            <float>-0.214553714</float>
            <float>0.14012222</float>
            <float>0.2839522</float>
            <float>0.151883513</float>
            <float>-0.6996541</float>
            <float>1.20592713</float>
          </ArrayOfFloat>
          <ArrayOfFloat>
            <float>1.11540329</float>
            <float>0.352702826</float>
            <float>0.412856728</float>
            <float>0.709656</float>
            <float>1.87098181</float>
            <float>0.9903829</float>
            <float>1.82085776</float>
            <float>-0.8636408</float>
            <float>1.42274261</float>
            <float>0.0827165842</float>
          </ArrayOfFloat>
        </ArrayOfArrayOfFloat>
      </axons>
    </NeuralNetwork>
    <NeuralNetwork>
      <layers>
        <int>10</int>
        <int>10</int>
        <int>10</int>
        <int>3</int>
      </layers>
      <neurons>
        <ArrayOfFloat>
          <float>0</float>
          <float>0.452646762</float>
          <float>0.428403944</float>
          <float>0.43041873</float>
          <float>0.381539077</float>
          <float>0.6398748</float>
          <float>-0.01271222</float>
          <float>1</float>
          <float>0</float>
          <float>1</float>
        </ArrayOfFloat>
        <ArrayOfFloat>
          <float>0.00664820429</float>
          <float>-0.180792</float>
          <float>0.9983119</float>
          <float>0.998691142</float>
          <float>-0.751333058</float>
          <float>-0.106933922</float>
          <float>0.978392541</float>
          <float>-0.150611177</float>
          <float>0.085934</float>
          <float>-0.609437168</float>
        </ArrayOfFloat>
        <ArrayOfFloat>
          <float>-0.6589098</float>
          <float>-0.131513208</float>
          <float>-0.6412611</float>
          <float>-0.8008417</float>
          <float>-0.896893442</float>
          <float>-0.0563979521</float>
          <float>-0.76151067</float>
          <float>0.987002134</float>
          <float>0.204806745</float>
          <float>0.3653327</float>
        </ArrayOfFloat>
        <ArrayOfFloat>
          <float>0.0365128443</float>
          <float>-0.5279537</float>
          <float>-0.999946654</float>
        </ArrayOfFloat>
      </neurons>
      <axons>
        <ArrayOfArrayOfFloat>
          <ArrayOfFloat>
            <float>0.5263841</float>
            <float>-0.547649</float>
            <float>1.81597507</float>
            <float>1.27478862</float>
            <float>-0.7144957</float>
            <float>-1.01927638</float>
            <float>0.8281531</float>
            <float>0.1341942</float>
            <float>-0.0168096349</float>
            <float>-0.2709731</float>
          </ArrayOfFloat>
          <ArrayOfFloat>
            <float>0.0110154282</float>
            <float>0.729592264</float>
            <float>0.7377671</float>
            <float>-0.4737693</float>
            <float>-0.0569239855</float>
            <float>-0.955314457</float>
            <float>-0.945418358</float>
            <float>-0.0288360175</float>
            <float>0.09226722</float>
            <float>0.02462594</float>
          </ArrayOfFloat>
          <ArrayOfFloat>
            <float>-0.507843</float>
            <float>0.483994424</float>
            <float>0.611945</float>
            <float>0.219031915</float>
            <float>0.423589915</float>
            <float>1.76974392</float>
            <float>-0.934577</float>
            <float>1.6017561</float>
            <float>0.0209149122</float>
            <float>0.0550466776</float>
          </ArrayOfFloat>
          <ArrayOfFloat>
            <float>0.4956507</float>
            <float>0.683694839</float>
            <float>0.07832192</float>
            <float>1.96692467</float>
            <float>1.4035</float>
            <float>0.8735521</float>
            <float>0.101337641</float>
            <float>1.65476286</float>
            <float>1.795096</float>
            <float>-0.2720201</float>
          </ArrayOfFloat>
          <ArrayOfFloat>
            <float>0.06102323</float>
            <float>0.0949144959</float>
            <float>-0.1479214</float>
            <float>-0.0424878933</float>
            <float>-0.5647825</float>
            <float>-0.46582</float>
            <float>-0.6964354</float>
            <float>-0.010737746</float>
            <float>1.36301208</float>
            <float>-0.42187655</float>
          </ArrayOfFloat>
          <ArrayOfFloat>
            <float>-0.447184324</float>
            <float>1.31943107</float>
            <float>0.25194326</float>
            <float>-0.6462649</float>
            <float>0.750934243</float>
            <float>-0.5382122</float>
            <float>1.510081</float>
            <float>-0.030226266</float>
            <float>1.41409564</float>
            <float>-0.427049041</float>
          </ArrayOfFloat>
          <ArrayOfFloat>
            <float>-0.701244235</float>
            <float>0.843482256</float>
            <float>1.94110775</float>
            <float>-0.147553891</float>
            <float>1.94400156</float>
            <float>0.263340831</float>
            <float>-0.736459732</float>
            <float>-0.5078211</float>
            <float>0.7108877</float>
            <float>0.696874142</float>
          </ArrayOfFloat>
          <ArrayOfFloat>
            <float>-0.390709758</float>
            <float>0.00660642</float>
            <float>-0.220202327</float>
            <float>0.9007573</float>
            <float>0.8048535</float>
            <float>0.0330185741</float>
            <float>1.82691574</float>
            <float>-0.800456643</float>
            <float>0.44863674</float>
            <float>0.0473466255</float>
          </ArrayOfFloat>
          <ArrayOfFloat>
            <float>-0.720011353</float>
            <float>-0.5266333</float>
            <float>-0.0330280066</float>
            <float>-0.388779759</float>
            <float>1.885157</float>
            <float>-0.675287068</float>
            <float>-0.401081681</float>
            <float>-0.9032464</float>
            <float>0.80830425</float>
            <float>1.11699867</float>
          </ArrayOfFloat>
          <ArrayOfFloat>
            <float>1.03013563</float>
            <float>-0.8502748</float>
            <float>0.04328185</float>
            <float>-0.9355028</float>
            <float>1.0154171</float>
            <float>0.00446454249</float>
            <float>0.265363783</float>
            <float>0.170479417</float>
            <float>-0.0554235578</float>
            <float>-0.4964196</float>
          </ArrayOfFloat>
        </ArrayOfArrayOfFloat>
        <ArrayOfArrayOfFloat>
          <ArrayOfFloat>
            <float>-0.8208252</float>
            <float>0.724748</float>
            <float>0.847746134</float>
            <float>0.4761124</float>
            <float>1.88755715</float>
            <float>-0.094810605</float>
            <float>-0.512782753</float>
            <float>1.46176279</float>
            <float>0.7641394</float>
            <float>-0.144457251</float>
          </ArrayOfFloat>
          <ArrayOfFloat>
            <float>1.63208556</float>
            <float>0.818523049</float>
            <float>0.5033625</float>
            <float>0.4382842</float>
            <float>0.983252764</float>
            <float>-0.934401751</float>
            <float>-0.229411483</float>
            <float>1.40533662</float>
            <float>0.6818762</float>
            <float>-0.132873312</float>
          </ArrayOfFloat>
          <ArrayOfFloat>
            <float>-0.295826942</float>
            <float>-1</float>
            <float>0.00362495473</float>
            <float>-0.6791351</float>
            <float>-0.780716658</float>
            <float>0.899645567</float>
            <float>-0.451382518</float>
            <float>1.48939943</float>
            <float>-0.404738545</float>
            <float>0.08886228</float>
          </ArrayOfFloat>
          <ArrayOfFloat>
            <float>0.695786357</float>
            <float>1.71437645</float>
            <float>-0.604242861</float>
            <float>-0.334058046</float>
            <float>0.00487876</float>
            <float>0.73667</float>
            <float>-0.232707664</float>
            <float>0.128990784</float>
            <float>1.6572454</float>
            <float>-0.5387635</float>
          </ArrayOfFloat>
          <ArrayOfFloat>
            <float>-0.08084561</float>
            <float>1.38500345</float>
            <float>1.30915618</float>
            <float>-1</float>
            <float>0.975938737</float>
            <float>0.107773267</float>
            <float>-0.682812631</float>
            <float>-0.07662281</float>
            <float>-0.1007641</float>
            <float>0.169776082</float>
          </ArrayOfFloat>
          <ArrayOfFloat>
            <float>-0.199017286</float>
            <float>0.7801965</float>
            <float>0.6726732</float>
            <float>0.6403489</float>
            <float>-0.192183539</float>
            <float>0.280254334</float>
            <float>-0.340273</float>
            <float>0.5061734</float>
            <float>0.964334965</float>
            <float>1.6626296</float>
          </ArrayOfFloat>
          <ArrayOfFloat>
            <float>0.374334931</float>
            <float>1.23258483</float>
            <float>-0.0249717031</float>
            <float>-0.334821045</float>
            <float>0.894002855</float>
            <float>-0.01650124</float>
            <float>-0.05707836</float>
            <float>1.99619138</float>
            <float>1.54189825</float>
            <float>-0.777415</float>
          </ArrayOfFloat>
          <ArrayOfFloat>
            <float>0.384784937</float>
            <float>-0.8220259</float>
            <float>0.0440801755</float>
            <float>1.869499</float>
            <float>0.604252338</float>
            <float>1.033883</float>
            <float>1.4737637</float>
            <float>1.87919271</float>
            <float>1.59366846</float>
            <float>0.457345</float>
          </ArrayOfFloat>
          <ArrayOfFloat>
            <float>-0.227973744</float>
            <float>0.8468776</float>
            <float>-0.5197022</float>
            <float>1.605444</float>
            <float>1.21754742</float>
            <float>1.11383462</float>
            <float>0.622881532</float>
            <float>-0.223901629</float>
            <float>0.435216933</float>
            <float>0.6051538</float>
          </ArrayOfFloat>
          <ArrayOfFloat>
            <float>0.7354482</float>
            <float>0.70295316</float>
            <float>0.08472299</float>
            <float>-0.466597527</float>
            <float>-0.6377127</float>
            <float>1.13730741</float>
            <float>1.2853893</float>
            <float>-0.516024053</float>
            <float>1.01605868</float>
            <float>1.46616292</float>
          </ArrayOfFloat>
        </ArrayOfArrayOfFloat>
        <ArrayOfArrayOfFloat>
          <ArrayOfFloat>
            <float>0.05746253</float>
            <float>-0.132441446</float>
            <float>-0.178357676</float>
            <float>-0.6193395</float>
            <float>0.388026446</float>
            <float>-0.9863136</float>
            <float>0.5556988</float>
            <float>0.17348969</float>
            <float>0.862297535</float>
            <float>-0.508219</float>
          </ArrayOfFloat>
          <ArrayOfFloat>
            <float>0.855900347</float>
            <float>1.60070419</float>
            <float>0.448538154</float>
            <float>-0.07407765</float>
            <float>-0.214553714</float>
            <float>0.14012222</float>
            <float>0.2839522</float>
            <float>0.151883513</float>
            <float>-0.6996541</float>
            <float>1.20592713</float>
          </ArrayOfFloat>
          <ArrayOfFloat>
            <float>1.11540329</float>
            <float>0.352702826</float>
            <float>0.412856728</float>
            <float>0.709656</float>
            <float>1.87098181</float>
            <float>0.9903829</float>
            <float>1.82085776</float>
            <float>-0.8636408</float>
            <float>1.42274261</float>
            <float>0.0827165842</float>
          </ArrayOfFloat>
        </ArrayOfArrayOfFloat>
      </axons>
    </NeuralNetwork>
    <NeuralNetwork>
      <layers>
        <int>10</int>
        <int>10</int>
        <int>10</int>
        <int>3</int>
      </layers>
      <neurons>
        <ArrayOfFloat>
          <float>0</float>
          <float>0.4444985</float>
          <float>0.4352847</float>
          <float>0.4395396</float>
          <float>0.36865145</float>
          <float>0.6345819</float>
          <float>-0.0205782931</float>
          <float>1</float>
          <float>0</float>
          <float>1</float>
        </ArrayOfFloat>
        <ArrayOfFloat>
          <float>0.0432949439</float>
          <float>-0.173006549</float>
          <float>0.998294234</float>
          <float>0.9942791</float>
          <float>-0.745596647</float>
          <float>-0.1400374</float>
          <float>0.977719069</float>
          <float>-0.168417051</float>
          <float>0.06898859</float>
          <float>-0.619707048</float>
        </ArrayOfFloat>
        <ArrayOfFloat>
          <float>-0.686137</float>
          <float>-0.0664273649</float>
          <float>-0.6807299</float>
          <float>-0.8039467</float>
          <float>-0.893713236</float>
          <float>-0.112614073</float>
          <float>-0.7710792</float>
          <float>0.9842268</float>
          <float>0.1576729</float>
          <float>0.3383684</float>
        </ArrayOfFloat>
        <ArrayOfFloat>
          <float>0.0591802523</float>
          <float>-0.489296675</float>
          <float>-0.999992549</float>
        </ArrayOfFloat>
      </neurons>
      <axons>
        <ArrayOfArrayOfFloat>
          <ArrayOfFloat>
            <float>0.5263841</float>
            <float>-0.547649</float>
            <float>1.81597507</float>
            <float>1.27478862</float>
            <float>-0.7144957</float>
            <float>-1.01927638</float>
            <float>0.8281531</float>
            <float>0.1341942</float>
            <float>-0.0168096349</float>
            <float>-0.2709731</float>
          </ArrayOfFloat>
          <ArrayOfFloat>
            <float>0.0110154282</float>
            <float>0.729592264</float>
            <float>0.7377671</float>
            <float>-0.4737693</float>
            <float>-0.0569239855</float>
            <float>-0.955314457</float>
            <float>-0.945418358</float>
            <float>-0.0288360175</float>
            <float>0.09226722</float>
            <float>0.02462594</float>
          </ArrayOfFloat>
          <ArrayOfFloat>
            <float>-0.507843</float>
            <float>0.483994424</float>
            <float>0.611945</float>
            <float>0.219031915</float>
            <float>0.423589915</float>
            <float>1.76974392</float>
            <float>-0.934577</float>
            <float>1.6017561</float>
            <float>0.0209149122</float>
            <float>0.0550466776</float>
          </ArrayOfFloat>
          <ArrayOfFloat>
            <float>0.4956507</float>
            <float>0.683694839</float>
            <float>0.07832192</float>
            <float>1.96692467</float>
            <float>1.4035</float>
            <float>0.8735521</float>
            <float>0.101337641</float>
            <float>1.65476286</float>
            <float>1.795096</float>
            <float>-1</float>
          </ArrayOfFloat>
          <ArrayOfFloat>
            <float>0.06102323</float>
            <float>0.0949144959</float>
            <float>-0.1479214</float>
            <float>-0.0424878933</float>
            <float>-0.5647825</float>
            <float>-0.46582</float>
            <float>-0.6964354</float>
            <float>-0.010737746</float>
            <float>1.36301208</float>
            <float>-0.42187655</float>
          </ArrayOfFloat>
          <ArrayOfFloat>
            <float>-0.447184324</float>
            <float>1.31943107</float>
            <float>0.25194326</float>
            <float>-0.6462649</float>
            <float>0.750934243</float>
            <float>-0.5382122</float>
            <float>1.510081</float>
            <float>-0.030226266</float>
            <float>1.41409564</float>
            <float>-0.427049041</float>
          </ArrayOfFloat>
          <ArrayOfFloat>
            <float>-0.701244235</float>
            <float>0.843482256</float>
            <float>1.94110775</float>
            <float>-0.147553891</float>
            <float>1.94400156</float>
            <float>0.263340831</float>
            <float>-0.736459732</float>
            <float>-0.5078211</float>
            <float>0.7108877</float>
            <float>0.696874142</float>
          </ArrayOfFloat>
          <ArrayOfFloat>
            <float>-0.390709758</float>
            <float>0.00660642</float>
            <float>-0.220202327</float>
            <float>0.9007573</float>
            <float>0.8048535</float>
            <float>0.0330185741</float>
            <float>1.82691574</float>
            <float>-0.800456643</float>
            <float>0.44863674</float>
            <float>0.0473466255</float>
          </ArrayOfFloat>
          <ArrayOfFloat>
            <float>-0.720011353</float>
            <float>-0.5266333</float>
            <float>-0.0330280066</float>
            <float>-0.388779759</float>
            <float>1.885157</float>
            <float>-0.675287068</float>
            <float>-0.401081681</float>
            <float>-0.9032464</float>
            <float>0.80830425</float>
            <float>1.11699867</float>
          </ArrayOfFloat>
          <ArrayOfFloat>
            <float>1.03013563</float>
            <float>-0.8502748</float>
            <float>0.04328185</float>
            <float>-0.9355028</float>
            <float>1.0154171</float>
            <float>0.00446454249</float>
            <float>0.265363783</float>
            <float>0.170479417</float>
            <float>-0.0554235578</float>
            <float>-0.4964196</float>
          </ArrayOfFloat>
        </ArrayOfArrayOfFloat>
        <ArrayOfArrayOfFloat>
          <ArrayOfFloat>
            <float>-0.8208252</float>
            <float>0.724748</float>
            <float>0.847746134</float>
            <float>0.4761124</float>
            <float>1.88755715</float>
            <float>-0.094810605</float>
            <float>-0.512782753</float>
            <float>1.46176279</float>
            <float>0.7641394</float>
            <float>-0.144457251</float>
          </ArrayOfFloat>
          <ArrayOfFloat>
            <float>1.63208556</float>
            <float>0.818523049</float>
            <float>0.5033625</float>
            <float>0.4382842</float>
            <float>0.983252764</float>
            <float>-0.934401751</float>
            <float>-0.229411483</float>
            <float>1.40533662</float>
            <float>0.6818762</float>
            <float>-0.132873312</float>
          </ArrayOfFloat>
          <ArrayOfFloat>
            <float>-0.295826942</float>
            <float>-1</float>
            <float>0.00362495473</float>
            <float>-0.6791351</float>
            <float>-0.780716658</float>
            <float>0.899645567</float>
            <float>-0.451382518</float>
            <float>1.48939943</float>
            <float>-0.404738545</float>
            <float>0.08886228</float>
          </ArrayOfFloat>
          <ArrayOfFloat>
            <float>0.695786357</float>
            <float>1.71437645</float>
            <float>-0.604242861</float>
            <float>-0.334058046</float>
            <float>0.00487876</float>
            <float>0.73667</float>
            <float>-0.232707664</float>
            <float>0.128990784</float>
            <float>1.6572454</float>
            <float>-0.5387635</float>
          </ArrayOfFloat>
          <ArrayOfFloat>
            <float>-0.08084561</float>
            <float>1.38500345</float>
            <float>1.30915618</float>
            <float>-1</float>
            <float>0.975938737</float>
            <float>0.107773267</float>
            <float>-0.682812631</float>
            <float>-0.07662281</float>
            <float>-0.1007641</float>
            <float>0.169776082</float>
          </ArrayOfFloat>
          <ArrayOfFloat>
            <float>-0.199017286</float>
            <float>0.7801965</float>
            <float>0.6726732</float>
            <float>0.6403489</float>
            <float>-0.192183539</float>
            <float>0.280254334</float>
            <float>-0.340273</float>
            <float>0.5061734</float>
            <float>0.964334965</float>
            <float>1.6626296</float>
          </ArrayOfFloat>
          <ArrayOfFloat>
            <float>0.374334931</float>
            <float>1.23258483</float>
            <float>-0.0249717031</float>
            <float>-0.334821045</float>
            <float>0.894002855</float>
            <float>-0.01650124</float>
            <float>-0.05707836</float>
            <float>1.99619138</float>
            <float>1.54189825</float>
            <float>-0.777415</float>
          </ArrayOfFloat>
          <ArrayOfFloat>
            <float>0.384784937</float>
            <float>-0.8220259</float>
            <float>0.0440801755</float>
            <float>1.869499</float>
            <float>0.604252338</float>
            <float>1.033883</float>
            <float>1.4737637</float>
            <float>1.87919271</float>
            <float>1.59366846</float>
            <float>0.457345</float>
          </ArrayOfFloat>
          <ArrayOfFloat>
            <float>-0.227973744</float>
            <float>0.8468776</float>
            <float>-0.5197022</float>
            <float>1.605444</float>
            <float>1.21754742</float>
            <float>1.11383462</float>
            <float>0.622881532</float>
            <float>-0.223901629</float>
            <float>0.435216933</float>
            <float>0.6051538</float>
          </ArrayOfFloat>
          <ArrayOfFloat>
            <float>0.7354482</float>
            <float>0.70295316</float>
            <float>0.08472299</float>
            <float>-0.466597527</float>
            <float>-0.6377127</float>
            <float>1.13730741</float>
            <float>1.2853893</float>
            <float>-0.516024053</float>
            <float>1.01605868</float>
            <float>1.46616292</float>
          </ArrayOfFloat>
        </ArrayOfArrayOfFloat>
        <ArrayOfArrayOfFloat>
          <ArrayOfFloat>
            <float>0.05746253</float>
            <float>-0.132441446</float>
            <float>-0.178357676</float>
            <float>-0.6193395</float>
            <float>0.388026446</float>
            <float>-0.9863136</float>
            <float>0.5556988</float>
            <float>0.17348969</float>
            <float>0.862297535</float>
            <float>-0.508219</float>
          </ArrayOfFloat>
          <ArrayOfFloat>
            <float>0.855900347</float>
            <float>1.60070419</float>
            <float>0.448538154</float>
            <float>-0.07407765</float>
            <float>-0.214553714</float>
            <float>0.14012222</float>
            <float>0.2839522</float>
            <float>0.151883513</float>
            <float>-0.6996541</float>
            <float>1.20592713</float>
          </ArrayOfFloat>
          <ArrayOfFloat>
            <float>1.11540329</float>
            <float>0.352702826</float>
            <float>1.62309051</float>
            <float>0.709656</float>
            <float>1.87098181</float>
            <float>0.9903829</float>
            <float>1.82085776</float>
            <float>-0.8636408</float>
            <float>1.42274261</float>
            <float>0.0827165842</float>
          </ArrayOfFloat>
        </ArrayOfArrayOfFloat>
      </axons>
    </NeuralNetwork>
    <NeuralNetwork>
      <layers>
        <int>10</int>
        <int>10</int>
        <int>10</int>
        <int>3</int>
      </layers>
      <neurons>
        <ArrayOfFloat>
          <float>0</float>
          <float>0.459201664</float>
          <float>0.4219708</float>
          <float>0.416192949</float>
          <float>0.3972452</float>
          <float>0.6259582</float>
          <float>-0.00219200761</float>
          <float>1</float>
          <float>0</float>
          <float>1</float>
        </ArrayOfFloat>
        <ArrayOfFloat>
          <float>-0.0150823779</float>
          <float>-0.165086418</float>
          <float>0.9946146</float>
          <float>0.9986565</float>
          <float>-0.7545966</float>
          <float>-0.0558936372</float>
          <float>0.9789937</float>
          <float>-0.130962089</float>
          <float>0.122604452</float>
          <float>-0.592747569</float>
        </ArrayOfFloat>
        <ArrayOfFloat>
          <float>-0.652527332</float>
          <float>-0.156117424</float>
          <float>-0.607833743</float>
          <float>-0.759547532</float>
          <float>-0.893266559</float>
          <float>0.04536397</float>
          <float>-0.720881</float>
          <float>0.9900264</float>
          <float>0.293851376</float>
          <float>0.451043844</float>
        </ArrayOfFloat>
        <ArrayOfFloat>
          <float>-0.0340059549</float>
          <float>-0.523951948</float>
          <float>-0.9996402</float>
        </ArrayOfFloat>
      </neurons>
      <axons>
        <ArrayOfArrayOfFloat>
          <ArrayOfFloat>
            <float>0.5263841</float>
            <float>-0.547649</float>
            <float>1.81597507</float>
            <float>1.27478862</float>
            <float>-0.7144957</float>
            <float>-1.01927638</float>
            <float>0.8281531</float>
            <float>0.1341942</float>
            <float>-0.0168096349</float>
            <float>-0.2709731</float>
          </ArrayOfFloat>
          <ArrayOfFloat>
            <float>0.0110154282</float>
            <float>0.729592264</float>
            <float>0.7377671</float>
            <float>-0.457047433</float>
            <float>-0.0569239855</float>
            <float>-0.955314457</float>
            <float>-0.945418358</float>
            <float>-0.0288360175</float>
            <float>0.129563034</float>
            <float>0.02462594</float>
          </ArrayOfFloat>
          <ArrayOfFloat>
            <float>-0.507843</float>
            <float>0.483994424</float>
            <float>0.611945</float>
            <float>0.219031915</float>
            <float>-0.9591403</float>
            <float>1.76974392</float>
            <float>-0.934577</float>
            <float>1.6017561</float>
            <float>0.0209149122</float>
            <float>0.0550466776</float>
          </ArrayOfFloat>
          <ArrayOfFloat>
            <float>0.4956507</float>
            <float>0.683694839</float>
            <float>0.07832192</float>
            <float>1.96692467</float>
            <float>1.4035</float>
            <float>0.8735521</float>
            <float>0.101337641</float>
            <float>1.65476286</float>
            <float>1.795096</float>
            <float>-0.2720201</float>
          </ArrayOfFloat>
          <ArrayOfFloat>
            <float>0.06102323</float>
            <float>0.0949144959</float>
            <float>-0.1479214</float>
            <float>-0.0424878933</float>
            <float>-0.5647825</float>
            <float>-0.46582</float>
            <float>-0.6964354</float>
            <float>-0.010737746</float>
            <float>1.36301208</float>
            <float>-0.42187655</float>
          </ArrayOfFloat>
          <ArrayOfFloat>
            <float>-0.447184324</float>
            <float>1.31943107</float>
            <float>0.25194326</float>
            <float>-0.6462649</float>
            <float>0.750934243</float>
            <float>-0.5382122</float>
            <float>1.510081</float>
            <float>-0.030226266</float>
            <float>1.41409564</float>
            <float>-0.427049041</float>
          </ArrayOfFloat>
          <ArrayOfFloat>
            <float>-0.701244235</float>
            <float>0.843482256</float>
            <float>1.94110775</float>
            <float>-0.147553891</float>
            <float>1.94400156</float>
            <float>0.263340831</float>
            <float>-0.736459732</float>
            <float>-0.5078211</float>
            <float>0.7108877</float>
            <float>0.696874142</float>
          </ArrayOfFloat>
          <ArrayOfFloat>
            <float>-0.390709758</float>
            <float>0.00660642</float>
            <float>-0.220202327</float>
            <float>0.9007573</float>
            <float>0.8048535</float>
            <float>0.0330185741</float>
            <float>1.82691574</float>
            <float>-0.800456643</float>
            <float>0.44863674</float>
            <float>0.0473466255</float>
          </ArrayOfFloat>
          <ArrayOfFloat>
            <float>-0.720011353</float>
            <float>-0.5266333</float>
            <float>-0.0330280066</float>
            <float>-0.388779759</float>
            <float>1.885157</float>
            <float>-0.675287068</float>
            <float>-0.401081681</float>
            <float>-0.9032464</float>
            <float>0.80830425</float>
            <float>1.11699867</float>
          </ArrayOfFloat>
          <ArrayOfFloat>
            <float>1.03013563</float>
            <float>-0.8502748</float>
            <float>0.04328185</float>
            <float>-0.9355028</float>
            <float>1.0154171</float>
            <float>0.00446454249</float>
            <float>0.265363783</float>
            <float>0.170479417</float>
            <float>-0.0554235578</float>
            <float>-0.4964196</float>
          </ArrayOfFloat>
        </ArrayOfArrayOfFloat>
        <ArrayOfArrayOfFloat>
          <ArrayOfFloat>
            <float>-0.8208252</float>
            <float>0.724748</float>
            <float>0.847746134</float>
            <float>0.4761124</float>
            <float>1.96428287</float>
            <float>-0.094810605</float>
            <float>-0.512782753</float>
            <float>1.46176279</float>
            <float>0.7641394</float>
            <float>-0.144457251</float>
          </ArrayOfFloat>
          <ArrayOfFloat>
            <float>1.63208556</float>
            <float>0.818523049</float>
            <float>0.5033625</float>
            <float>0.4382842</float>
            <float>0.983252764</float>
            <float>-0.934401751</float>
            <float>-0.229411483</float>
            <float>1.40533662</float>
            <float>0.6818762</float>
            <float>-0.132873312</float>
          </ArrayOfFloat>
          <ArrayOfFloat>
            <float>-0.295826942</float>
            <float>-1</float>
            <float>0.00362495473</float>
            <float>-0.6791351</float>
            <float>-0.780716658</float>
            <float>0.899645567</float>
            <float>-0.451382518</float>
            <float>1.48939943</float>
            <float>-0.404738545</float>
            <float>0.08886228</float>
          </ArrayOfFloat>
          <ArrayOfFloat>
            <float>0.695786357</float>
            <float>1.71437645</float>
            <float>-0.604242861</float>
            <float>-0.334058046</float>
            <float>0.00487876</float>
            <float>0.73667</float>
            <float>-0.232707664</float>
            <float>0.128990784</float>
            <float>1.6572454</float>
            <float>-0.5387635</float>
          </ArrayOfFloat>
          <ArrayOfFloat>
            <float>-0.08084561</float>
            <float>1.38500345</float>
            <float>1.30915618</float>
            <float>-1</float>
            <float>0.975938737</float>
            <float>0.107773267</float>
            <float>-0.682812631</float>
            <float>-0.07663314</float>
            <float>-0.1007641</float>
            <float>0.169776082</float>
          </ArrayOfFloat>
          <ArrayOfFloat>
            <float>-0.199017286</float>
            <float>0.7801965</float>
            <float>0.6726732</float>
            <float>0.6403489</float>
            <float>-0.192183539</float>
            <float>0.280254334</float>
            <float>-0.340273</float>
            <float>0.5061734</float>
            <float>0.964334965</float>
            <float>1.6626296</float>
          </ArrayOfFloat>
          <ArrayOfFloat>
            <float>0.374334931</float>
            <float>1.23258483</float>
            <float>-0.0249717031</float>
            <float>-0.334821045</float>
            <float>0.894002855</float>
            <float>-0.01650124</float>
            <float>-0.05707836</float>
            <float>1.99619138</float>
            <float>1.54189825</float>
            <float>-0.777415</float>
          </ArrayOfFloat>
          <ArrayOfFloat>
            <float>0.384784937</float>
            <float>-0.8220259</float>
            <float>0.0440801755</float>
            <float>1.869499</float>
            <float>0.604252338</float>
            <float>1.033883</float>
            <float>1.4737637</float>
            <float>1.87919271</float>
            <float>1.59366846</float>
            <float>0.457345</float>
          </ArrayOfFloat>
          <ArrayOfFloat>
            <float>-0.227973744</float>
            <float>0.8468776</float>
            <float>-0.5197022</float>
            <float>1.605444</float>
            <float>1.21754742</float>
            <float>1.11383462</float>
            <float>0.622881532</float>
            <float>-0.223901629</float>
            <float>0.435216933</float>
            <float>0.6051538</float>
          </ArrayOfFloat>
          <ArrayOfFloat>
            <float>0.7354482</float>
            <float>0.70295316</float>
            <float>0.08472299</float>
            <float>-0.466597527</float>
            <float>-0.6377127</float>
            <float>1.13730741</float>
            <float>1.2853893</float>
            <float>-0.516024053</float>
            <float>1.01605868</float>
            <float>1.4733665</float>
          </ArrayOfFloat>
        </ArrayOfArrayOfFloat>
        <ArrayOfArrayOfFloat>
          <ArrayOfFloat>
            <float>0.05746253</float>
            <float>-0.132441446</float>
            <float>-0.178357676</float>
            <float>-0.6193395</float>
            <float>0.388026446</float>
            <float>-0.9863136</float>
            <float>0.5556988</float>
            <float>0.17348969</float>
            <float>0.862297535</float>
            <float>-0.508219</float>
          </ArrayOfFloat>
          <ArrayOfFloat>
            <float>0.855900347</float>
            <float>1.60070419</float>
            <float>0.448538154</float>
            <float>-0.0227060765</float>
            <float>-0.214553714</float>
            <float>0.14012222</float>
            <float>0.2839522</float>
            <float>0.151883513</float>
            <float>-0.6996541</float>
            <float>1.20592713</float>
          </ArrayOfFloat>
          <ArrayOfFloat>
            <float>1.11540329</float>
            <float>0.352702826</float>
            <float>0.412856728</float>
            <float>0.709656</float>
            <float>1.87098181</float>
            <float>0.9903829</float>
            <float>1.90912509</float>
            <float>-0.8636408</float>
            <float>1.42274261</float>
            <float>1.55399132</float>
          </ArrayOfFloat>
        </ArrayOfArrayOfFloat>
      </axons>
    </NeuralNetwork>
    <NeuralNetwork>
      <layers>
        <int>10</int>
        <int>10</int>
        <int>10</int>
        <int>3</int>
      </layers>
      <neurons>
        <ArrayOfFloat>
          <float>0</float>
          <float>0.457991064</float>
          <float>0.422719181</float>
          <float>0.406033248</float>
          <float>0.406751</float>
          <float>0.637178242</float>
          <float>-0.00477385661</float>
          <float>1</float>
          <float>0</float>
          <float>1</float>
        </ArrayOfFloat>
        <ArrayOfFloat>
          <float>-0.0463460125</float>
          <float>-0.169466808</float>
          <float>0.9982856</float>
          <float>0.998662233</float>
          <float>-0.7579787</float>
          <float>-0.0535429455</float>
          <float>0.981356144</float>
          <float>-0.136873886</float>
          <float>0.138274312</float>
          <float>-0.579897165</float>
        </ArrayOfFloat>
        <ArrayOfFloat>
          <float>-0.605971634</float>
          <float>-0.212281361</float>
          <float>-0.6057348</float>
          <float>-0.764592767</float>
          <float>-0.8937392</float>
          <float>0.08445996</float>
          <float>-0.729426</float>
          <float>0.9903265</float>
          <float>0.30967623</float>
          <float>0.47009784</float>
        </ArrayOfFloat>
        <ArrayOfFloat>
          <float>-0.060559433</float>
          <float>-0.548103034</float>
          <float>-0.9998892</float>
        </ArrayOfFloat>
      </neurons>
      <axons>
        <ArrayOfArrayOfFloat>
          <ArrayOfFloat>
            <float>0.5263841</float>
            <float>-0.547649</float>
            <float>1.81597507</float>
            <float>1.27478862</float>
            <float>-0.7144957</float>
            <float>-1.01927638</float>
            <float>0.8281531</float>
            <float>0.1341942</float>
            <float>-0.0168096349</float>
            <float>-0.2709731</float>
          </ArrayOfFloat>
          <ArrayOfFloat>
            <float>0.0110154282</float>
            <float>0.729592264</float>
            <float>0.7377671</float>
            <float>-0.457047433</float>
            <float>-0.0569239855</float>
            <float>-0.955314457</float>
            <float>-0.945418358</float>
            <float>-0.0288360175</float>
            <float>0.09226722</float>
            <float>0.02462594</float>
          </ArrayOfFloat>
          <ArrayOfFloat>
            <float>-0.507843</float>
            <float>0.483994424</float>
            <float>0.611945</float>
            <float>0.219031915</float>
            <float>0.423589915</float>
            <float>1.76974392</float>
            <float>-0.934577</float>
            <float>1.6017561</float>
            <float>0.0209149122</float>
            <float>0.0550466776</float>
          </ArrayOfFloat>
          <ArrayOfFloat>
            <float>0.4956507</float>
            <float>0.683694839</float>
            <float>0.07832192</float>
            <float>1.96692467</float>
            <float>1.4035</float>
            <float>0.8735521</float>
            <float>0.101337641</float>
            <float>1.65476286</float>
            <float>1.795096</float>
            <float>-0.2720201</float>
          </ArrayOfFloat>
          <ArrayOfFloat>
            <float>0.06102323</float>
            <float>0.0949144959</float>
            <float>-0.1479214</float>
            <float>-0.0424878933</float>
            <float>-0.5647825</float>
            <float>-0.46582</float>
            <float>-0.6964354</float>
            <float>-0.0100482479</float>
            <float>1.36301208</float>
            <float>-0.42187655</float>
          </ArrayOfFloat>
          <ArrayOfFloat>
            <float>-0.447184324</float>
            <float>1.31943107</float>
            <float>0.25194326</float>
            <float>-0.6462649</float>
            <float>0.750934243</float>
            <float>-0.5382122</float>
            <float>1.510081</float>
            <float>-0.030226266</float>
            <float>1.41409564</float>
            <float>-0.427049041</float>
          </ArrayOfFloat>
          <ArrayOfFloat>
            <float>-0.422915369</float>
            <float>0.843482256</float>
            <float>2.02386451</float>
            <float>-0.147553891</float>
            <float>1.94400156</float>
            <float>0.263340831</float>
            <float>-0.736459732</float>
            <float>-0.5078211</float>
            <float>1.41975117</float>
            <float>0.696874142</float>
          </ArrayOfFloat>
          <ArrayOfFloat>
            <float>-0.390709758</float>
            <float>0.00660642</float>
            <float>-0.220202327</float>
            <float>0.9007573</float>
            <float>0.8048535</float>
            <float>0.0330185741</float>
            <float>1.82691574</float>
            <float>-0.800456643</float>
            <float>0.44863674</float>
            <float>0.0473466255</float>
          </ArrayOfFloat>
          <ArrayOfFloat>
            <float>-0.720011353</float>
            <float>-0.5266333</float>
            <float>-0.0330280066</float>
            <float>-0.388779759</float>
            <float>1.885157</float>
            <float>-0.675287068</float>
            <float>-0.401081681</float>
            <float>-0.9032464</float>
            <float>0.80830425</float>
            <float>1.11699867</float>
          </ArrayOfFloat>
          <ArrayOfFloat>
            <float>1.03013563</float>
            <float>-0.8502748</float>
            <float>0.04328185</float>
            <float>-0.9355028</float>
            <float>1.0154171</float>
            <float>0.00446454249</float>
            <float>0.265363783</float>
            <float>0.170479417</float>
            <float>-0.0554235578</float>
            <float>-0.4964196</float>
          </ArrayOfFloat>
        </ArrayOfArrayOfFloat>
        <ArrayOfArrayOfFloat>
          <ArrayOfFloat>
            <float>-0.8208252</float>
            <float>0.724748</float>
            <float>0.847746134</float>
            <float>0.4761124</float>
            <float>1.88755715</float>
            <float>-0.094810605</float>
            <float>-0.512782753</float>
            <float>1.46176279</float>
            <float>0.7641394</float>
            <float>-0.144457251</float>
          </ArrayOfFloat>
          <ArrayOfFloat>
            <float>1.63208556</float>
            <float>0.818523049</float>
            <float>0.5033625</float>
            <float>0.4382842</float>
            <float>0.983252764</float>
            <float>-0.934401751</float>
            <float>-0.229411483</float>
            <float>1.40533662</float>
            <float>0.6818762</float>
            <float>-0.132873312</float>
          </ArrayOfFloat>
          <ArrayOfFloat>
            <float>-0.295826942</float>
            <float>-1</float>
            <float>0.00362495473</float>
            <float>-0.6791351</float>
            <float>-0.780716658</float>
            <float>0.899645567</float>
            <float>-0.451382518</float>
            <float>1.48939943</float>
            <float>-0.404738545</float>
            <float>0.08886228</float>
          </ArrayOfFloat>
          <ArrayOfFloat>
            <float>0.695786357</float>
            <float>1.71437645</float>
            <float>-0.604242861</float>
            <float>-0.334058046</float>
            <float>0.00487876</float>
            <float>0.73667</float>
            <float>-0.232707664</float>
            <float>0.128990784</float>
            <float>1.6572454</float>
            <float>-0.5387635</float>
          </ArrayOfFloat>
          <ArrayOfFloat>
            <float>-0.08084561</float>
            <float>1.38500345</float>
            <float>1.30915618</float>
            <float>-1</float>
            <float>0.975938737</float>
            <float>0.107773267</float>
            <float>-0.682812631</float>
            <float>-0.07663314</float>
            <float>-0.1007641</float>
            <float>0.169776082</float>
          </ArrayOfFloat>
          <ArrayOfFloat>
            <float>-0.199017286</float>
            <float>0.7801965</float>
            <float>0.6726732</float>
            <float>0.6403489</float>
            <float>-0.192183539</float>
            <float>0.280254334</float>
            <float>-0.340273</float>
            <float>0.5061734</float>
            <float>0.964334965</float>
            <float>1.6626296</float>
          </ArrayOfFloat>
          <ArrayOfFloat>
            <float>0.374334931</float>
            <float>1.23258483</float>
            <float>-0.0249717031</float>
            <float>-0.334821045</float>
            <float>0.894002855</float>
            <float>-0.01650124</float>
            <float>-0.05707836</float>
            <float>1.99619138</float>
            <float>1.54189825</float>
            <float>-0.777415</float>
          </ArrayOfFloat>
          <ArrayOfFloat>
            <float>0.384784937</float>
            <float>-0.8220259</float>
            <float>0.0440801755</float>
            <float>1.869499</float>
            <float>0.604252338</float>
            <float>1.033883</float>
            <float>1.4737637</float>
            <float>1.87919271</float>
            <float>1.59366846</float>
            <float>0.457345</float>
          </ArrayOfFloat>
          <ArrayOfFloat>
            <float>-0.227973744</float>
            <float>0.8468776</float>
            <float>-0.5197022</float>
            <float>1.605444</float>
            <float>1.21754742</float>
            <float>1.11383462</float>
            <float>0.622881532</float>
            <float>-0.223901629</float>
            <float>0.435216933</float>
            <float>0.6051538</float>
          </ArrayOfFloat>
          <ArrayOfFloat>
            <float>0.7354482</float>
            <float>0.70295316</float>
            <float>0.08472299</float>
            <float>-0.466597527</float>
            <float>-0.6377127</float>
            <float>1.13730741</float>
            <float>1.2853893</float>
            <float>-0.516024053</float>
            <float>1.01605868</float>
            <float>1.46616292</float>
          </ArrayOfFloat>
        </ArrayOfArrayOfFloat>
        <ArrayOfArrayOfFloat>
          <ArrayOfFloat>
            <float>0.05746253</float>
            <float>-0.132441446</float>
            <float>-0.178357676</float>
            <float>-0.6193395</float>
            <float>0.388026446</float>
            <float>-0.9863136</float>
            <float>0.5556988</float>
            <float>0.17348969</float>
            <float>0.862297535</float>
            <float>-0.508219</float>
          </ArrayOfFloat>
          <ArrayOfFloat>
            <float>0.855900347</float>
            <float>1.60070419</float>
            <float>0.448538154</float>
            <float>-0.0227060765</float>
            <float>-0.214553714</float>
            <float>0.14012222</float>
            <float>0.2839522</float>
            <float>0.151883513</float>
            <float>-0.6996541</float>
            <float>1.20592713</float>
          </ArrayOfFloat>
          <ArrayOfFloat>
            <float>1.11540329</float>
            <float>0.352702826</float>
            <float>0.412856728</float>
            <float>0.709656</float>
            <float>1.87098181</float>
            <float>0.9903829</float>
            <float>1.90912509</float>
            <float>-0.8636408</float>
            <float>1.42274261</float>
            <float>0.0827165842</float>
          </ArrayOfFloat>
        </ArrayOfArrayOfFloat>
      </axons>
    </NeuralNetwork>
    <NeuralNetwork>
      <layers>
        <int>10</int>
        <int>10</int>
        <int>10</int>
        <int>3</int>
      </layers>
      <neurons>
        <ArrayOfFloat>
          <float>0.276874751</float>
          <float>0.509728134</float>
          <float>0.371338844</float>
          <float>0.473176271</float>
          <float>0.345414847</float>
          <float>0.57326144</float>
          <float>-0.0107703377</float>
          <float>1</float>
          <float>0</float>
          <float>1</float>
        </ArrayOfFloat>
        <ArrayOfFloat>
          <float>0.170052692</float>
          <float>-0.07059893</float>
          <float>0.997140467</float>
          <float>0.998844</float>
          <float>-0.79691875</float>
          <float>-0.32681337</float>
          <float>0.956766367</float>
          <float>-0.185567334</float>
          <float>-0.1799214</float>
          <float>-0.5007261</float>
        </ArrayOfFloat>
        <ArrayOfFloat>
          <float>-0.9311404</float>
          <float>0.143823862</float>
          <float>-0.7641929</float>
          <float>-0.9515454</float>
          <float>-0.8505761</float>
          <float>-0.225880533</float>
          <float>-0.992460668</float>
          <float>0.942606151</float>
          <float>-0.0910539553</float>
          <float>0.230918542</float>
        </ArrayOfFloat>
        <ArrayOfFloat>
          <float>-0.0349254459</float>
          <float>-0.449959785</float>
          <float>-0.999995649</float>
        </ArrayOfFloat>
      </neurons>
      <axons>
        <ArrayOfArrayOfFloat>
          <ArrayOfFloat>
            <float>0.5263841</float>
            <float>-0.5390242</float>
            <float>1.81597507</float>
            <float>1.27478862</float>
            <float>-0.7144957</float>
            <float>-1.01927638</float>
            <float>0.8281531</float>
            <float>0.1341942</float>
            <float>-0.0168096349</float>
            <float>-0.2709731</float>
          </ArrayOfFloat>
          <ArrayOfFloat>
            <float>0.0110154282</float>
            <float>0.793575346</float>
            <float>0.7377671</float>
            <float>-0.4737693</float>
            <float>-0.0569239855</float>
            <float>-0.955314457</float>
            <float>-0.945418358</float>
            <float>0.00443958445</float>
            <float>0.09226722</float>
            <float>0.02462594</float>
          </ArrayOfFloat>
          <ArrayOfFloat>
            <float>-0.507843</float>
            <float>0.483994424</float>
            <float>0.611945</float>
            <float>0.219031915</float>
            <float>0.451727629</float>
            <float>1.76974392</float>
            <float>-0.934577</float>
            <float>1.6017561</float>
            <float>0.0209149122</float>
            <float>0.0550466776</float>
          </ArrayOfFloat>
          <ArrayOfFloat>
            <float>0.18848066</float>
            <float>0.683694839</float>
            <float>0.07832192</float>
            <float>1.96692467</float>
            <float>1.4035</float>
            <float>0.8735521</float>
            <float>0.101337641</float>
            <float>1.65476286</float>
            <float>1.73382521</float>
            <float>-0.2720201</float>
          </ArrayOfFloat>
          <ArrayOfFloat>
            <float>0.06102323</float>
            <float>0.0949144959</float>
            <float>-0.1479214</float>
            <float>-0.0424878933</float>
            <float>-0.5647825</float>
            <float>-0.46582</float>
            <float>-0.6964354</float>
            <float>-0.20385778</float>
            <float>1.36301208</float>
            <float>-0.42187655</float>
          </ArrayOfFloat>
          <ArrayOfFloat>
            <float>-1</float>
            <float>1.31943107</float>
            <float>0.25194326</float>
            <float>-0.6462649</float>
            <float>0.750934243</float>
            <float>-0.5382122</float>
            <float>1.510081</float>
            <float>-0.030226266</float>
            <float>1.41409564</float>
            <float>-0.427049041</float>
          </ArrayOfFloat>
          <ArrayOfFloat>
            <float>-0.701244235</float>
            <float>0.843482256</float>
            <float>1.94110775</float>
            <float>-0.147553891</float>
            <float>1.94400156</float>
            <float>0.263340831</float>
            <float>-0.736459732</float>
            <float>-0.5078211</float>
            <float>0.7108877</float>
            <float>0.696874142</float>
          </ArrayOfFloat>
          <ArrayOfFloat>
            <float>-0.390709758</float>
            <float>0.00660642</float>
            <float>-0.220202327</float>
            <float>0.9007573</float>
            <float>0.8048535</float>
            <float>0.0330185741</float>
            <float>1.82691574</float>
            <float>-0.800456643</float>
            <float>0.44863674</float>
            <float>0.0958169</float>
          </ArrayOfFloat>
          <ArrayOfFloat>
            <float>-0.720011353</float>
            <float>-0.5266333</float>
            <float>-0.0330280066</float>
            <float>-0.388779759</float>
            <float>1.885157</float>
            <float>-0.675287068</float>
            <float>-0.401081681</float>
            <float>-0.9032464</float>
            <float>0.80830425</float>
            <float>1.11699867</float>
          </ArrayOfFloat>
          <ArrayOfFloat>
            <float>1.03013563</float>
            <float>-0.8502748</float>
            <float>0.04328185</float>
            <float>-0.9355028</float>
